#pragma once
#include <cstdint>
namespace Eloquent {
    namespace ML {
        namespace Port {
            class RandomForest {
                public:
                    /**
                    * Predict class for features vector
                    */
                    int predict(float *x) {
                        uint8_t votes[2] = { 0 };
                        // tree #1
                        if (x[106] <= -56.0589599609375) {
                            if (x[17] <= 88.3270263671875) {
                                if (x[10] <= -114.99298095703125) {
                                    votes[0] += 1;
                                }

                                else {
                                    votes[1] += 1;
                                }
                            }

                            else {
                                votes[0] += 1;
                            }
                        }

                        else {
                            if (x[31] <= -0.46588151156902313) {
                                votes[1] += 1;
                            }

                            else {
                                if (x[56] <= 1.7712405323982239) {
                                    votes[0] += 1;
                                }

                                else {
                                    votes[0] += 1;
                                }
                            }
                        }

                        // tree #2
                        if (x[68] <= 2.3023070096969604) {
                            if (x[95] <= 91.60797119140625) {
                                if (x[115] <= 1.2050170302391052) {
                                    votes[0] += 1;
                                }

                                else {
                                    votes[0] += 1;
                                }
                            }

                            else {
                                if (x[89] <= 244.8016357421875) {
                                    votes[1] += 1;
                                }

                                else {
                                    votes[0] += 1;
                                }
                            }
                        }

                        else {
                            if (x[27] <= 46.1322021484375) {
                                votes[1] += 1;
                            }

                            else {
                                if (x[97] <= 0.27014151215553284) {
                                    votes[0] += 1;
                                }

                                else {
                                    votes[1] += 1;
                                }
                            }
                        }

                        // tree #3
                        if (x[72] <= 1.0117799639701843) {
                            if (x[14] <= -1.1463014781475067) {
                                if (x[13] <= -0.5150144994258881) {
                                    votes[0] += 1;
                                }

                                else {
                                    votes[1] += 1;
                                }
                            }

                            else {
                                if (x[118] <= -242.33062744140625) {
                                    votes[1] += 1;
                                }

                                else {
                                    votes[0] += 1;
                                }
                            }
                        }

                        else {
                            if (x[79] <= 0.7614135146141052) {
                                if (x[60] <= 2.12152099609375) {
                                    votes[1] += 1;
                                }

                                else {
                                    votes[0] += 1;
                                }
                            }

                            else {
                                if (x[66] <= 0.9386600255966187) {
                                    votes[1] += 1;
                                }

                                else {
                                    votes[0] += 1;
                                }
                            }
                        }

                        // tree #4
                        if (x[40] <= 155.6109619140625) {
                            if (x[72] <= 0.9468995034694672) {
                                if (x[8] <= -0.9553830027580261) {
                                    votes[1] += 1;
                                }

                                else {
                                    votes[0] += 1;
                                }
                            }

                            else {
                                if (x[4] <= -50.77178955078125) {
                                    votes[0] += 1;
                                }

                                else {
                                    votes[1] += 1;
                                }
                            }
                        }

                        else {
                            if (x[100] <= -163.99200439453125) {
                                if (x[100] <= -398.695068359375) {
                                    votes[0] += 1;
                                }

                                else {
                                    votes[1] += 1;
                                }
                            }

                            else {
                                if (x[104] <= -1.4161990582942963) {
                                    votes[1] += 1;
                                }

                                else {
                                    votes[0] += 1;
                                }
                            }
                        }

                        // tree #5
                        if (x[68] <= 1.0179445147514343) {
                            if (x[118] <= -194.75372314453125) {
                                if (x[65] <= 46.7425537109375) {
                                    votes[1] += 1;
                                }

                                else {
                                    votes[0] += 1;
                                }
                            }

                            else {
                                if (x[56] <= -1.9874264597892761) {
                                    votes[1] += 1;
                                }

                                else {
                                    votes[0] += 1;
                                }
                            }
                        }

                        else {
                            if (x[22] <= -113.7066650390625) {
                                if (x[86] <= 1.3273314833641052) {
                                    votes[0] += 1;
                                }

                                else {
                                    votes[1] += 1;
                                }
                            }

                            else {
                                if (x[72] <= 0.23272699862718582) {
                                    votes[0] += 1;
                                }

                                else {
                                    votes[1] += 1;
                                }
                            }
                        }

                        // tree #6
                        if (x[68] <= 1.0164185166358948) {
                            if (x[118] <= -197.7490234375) {
                                if (x[33] <= -22.0745849609375) {
                                    votes[1] += 1;
                                }

                                else {
                                    votes[0] += 1;
                                }
                            }

                            else {
                                if (x[93] <= -123.70208740234375) {
                                    votes[1] += 1;
                                }

                                else {
                                    votes[0] += 1;
                                }
                            }
                        }

                        else {
                            if (x[39] <= 115.77239990234375) {
                                if (x[90] <= 0.4547730088233948) {
                                    votes[0] += 1;
                                }

                                else {
                                    votes[1] += 1;
                                }
                            }

                            else {
                                votes[0] += 1;
                            }
                        }

                        // tree #7
                        if (x[58] <= 174.44793701171875) {
                            if (x[4] <= 159.9444580078125) {
                                if (x[94] <= 163.7286376953125) {
                                    votes[0] += 1;
                                }

                                else {
                                    votes[1] += 1;
                                }
                            }

                            else {
                                if (x[11] <= 65.3472900390625) {
                                    votes[1] += 1;
                                }

                                else {
                                    votes[0] += 1;
                                }
                            }
                        }

                        else {
                            if (x[61] <= 0.3832399994134903) {
                                if (x[104] <= 2.760498046875) {
                                    votes[1] += 1;
                                }

                                else {
                                    votes[0] += 1;
                                }
                            }

                            else {
                                if (x[62] <= 1.4072875082492828) {
                                    votes[0] += 1;
                                }

                                else {
                                    votes[1] += 1;
                                }
                            }
                        }

                        // tree #8
                        if (x[113] <= 31.3812255859375) {
                            if (x[62] <= 2.338927984237671) {
                                if (x[20] <= -1.167968988418579) {
                                    votes[1] += 1;
                                }

                                else {
                                    votes[0] += 1;
                                }
                            }

                            else {
                                if (x[116] <= 0.4206539988517761) {
                                    votes[1] += 1;
                                }

                                else {
                                    votes[0] += 1;
                                }
                            }
                        }

                        else {
                            if (x[83] <= -186.0150146484375) {
                                votes[0] += 1;
                            }

                            else {
                                if (x[9] <= 54.5550537109375) {
                                    votes[1] += 1;
                                }

                                else {
                                    votes[0] += 1;
                                }
                            }
                        }

                        // tree #9
                        if (x[72] <= 1.0117799639701843) {
                            if (x[73] <= -0.516601487994194) {
                                if (x[24] <= 0.24737550131976604) {
                                    votes[0] += 1;
                                }

                                else {
                                    votes[1] += 1;
                                }
                            }

                            else {
                                if (x[76] <= 122.28118896484375) {
                                    votes[0] += 1;
                                }

                                else {
                                    votes[0] += 1;
                                }
                            }
                        }

                        else {
                            if (x[100] <= 324.3426513671875) {
                                if (x[6] <= 0.06530750170350075) {
                                    votes[0] += 1;
                                }

                                else {
                                    votes[1] += 1;
                                }
                            }

                            else {
                                votes[0] += 1;
                            }
                        }

                        // tree #10
                        if (x[64] <= 179.3536376953125) {
                            if (x[64] <= -143.0645751953125) {
                                if (x[118] <= 142.16033935546875) {
                                    votes[1] += 1;
                                }

                                else {
                                    votes[0] += 1;
                                }
                            }

                            else {
                                if (x[80] <= -1.3225709795951843) {
                                    votes[1] += 1;
                                }

                                else {
                                    votes[0] += 1;
                                }
                            }
                        }

                        else {
                            if (x[22] <= -81.2664794921875) {
                                votes[0] += 1;
                            }

                            else {
                                if (x[50] <= 0.5391845107078552) {
                                    votes[0] += 1;
                                }

                                else {
                                    votes[1] += 1;
                                }
                            }
                        }

                        // tree #11
                        if (x[70] <= -206.05743408203125) {
                            if (x[32] <= 0.5515750050544739) {
                                if (x[80] <= 0.3757320046424866) {
                                    votes[0] += 1;
                                }

                                else {
                                    votes[1] += 1;
                                }
                            }

                            else {
                                if (x[98] <= 1.7471920251846313) {
                                    votes[1] += 1;
                                }

                                else {
                                    votes[0] += 1;
                                }
                            }
                        }

                        else {
                            if (x[48] <= 1.2199710011482239) {
                                if (x[92] <= -1.681396484375) {
                                    votes[1] += 1;
                                }

                                else {
                                    votes[0] += 1;
                                }
                            }

                            else {
                                if (x[107] <= 14.9322509765625) {
                                    votes[0] += 1;
                                }

                                else {
                                    votes[1] += 1;
                                }
                            }
                        }

                        // tree #12
                        if (x[74] <= -0.9787599742412567) {
                            if (x[95] <= -108.69445776939392) {
                                votes[0] += 1;
                            }

                            else {
                                votes[1] += 1;
                            }
                        }

                        else {
                            if (x[56] <= 1.0266720056533813) {
                                if (x[50] <= -1.111083984375) {
                                    votes[1] += 1;
                                }

                                else {
                                    votes[0] += 1;
                                }
                            }

                            else {
                                if (x[27] <= 87.1783447265625) {
                                    votes[1] += 1;
                                }

                                else {
                                    votes[0] += 1;
                                }
                            }
                        }

                        // tree #13
                        if (x[57] <= -36.0260009765625) {
                            if (x[71] <= 11.3311767578125) {
                                if (x[1] <= 0.5167845189571381) {
                                    votes[1] += 1;
                                }

                                else {
                                    votes[0] += 1;
                                }
                            }

                            else {
                                if (x[8] <= 1.81683349609375) {
                                    votes[0] += 1;
                                }

                                else {
                                    votes[1] += 1;
                                }
                            }
                        }

                        else {
                            if (x[68] <= 1.110656499862671) {
                                if (x[14] <= 2.403259515762329) {
                                    votes[0] += 1;
                                }

                                else {
                                    votes[1] += 1;
                                }
                            }

                            else {
                                if (x[66] <= 1.05560302734375) {
                                    votes[0] += 1;
                                }

                                else {
                                    votes[1] += 1;
                                }
                            }
                        }

                        // tree #14
                        if (x[110] <= -1.1654660105705261) {
                            if (x[103] <= 0.6546629965305328) {
                                votes[1] += 1;
                            }

                            else {
                                votes[0] += 1;
                            }
                        }

                        else {
                            if (x[85] <= -0.03454599995166063) {
                                if (x[24] <= 0.9943239986896515) {
                                    votes[0] += 1;
                                }

                                else {
                                    votes[1] += 1;
                                }
                            }

                            else {
                                if (x[90] <= 1.22833251953125) {
                                    votes[0] += 1;
                                }

                                else {
                                    votes[1] += 1;
                                }
                            }
                        }

                        // tree #15
                        if (x[78] <= 1.0089725255966187) {
                            if (x[46] <= 242.65472412109375) {
                                if (x[106] <= 247.98309326171875) {
                                    votes[0] += 1;
                                }

                                else {
                                    votes[1] += 1;
                                }
                            }

                            else {
                                if (x[112] <= -298.97125244140625) {
                                    votes[0] += 1;
                                }

                                else {
                                    votes[1] += 1;
                                }
                            }
                        }

                        else {
                            if (x[77] <= -161.47430419921875) {
                                votes[0] += 1;
                            }

                            else {
                                if (x[4] <= -186.05621337890625) {
                                    votes[0] += 1;
                                }

                                else {
                                    votes[1] += 1;
                                }
                            }
                        }

                        // tree #16
                        if (x[70] <= 155.9771728515625) {
                            if (x[50] <= -1.192199468612671) {
                                if (x[83] <= -103.3233642578125) {
                                    votes[0] += 1;
                                }

                                else {
                                    votes[1] += 1;
                                }
                            }

                            else {
                                if (x[84] <= 1.2594605088233948) {
                                    votes[0] += 1;
                                }

                                else {
                                    votes[0] += 1;
                                }
                            }
                        }

                        else {
                            if (x[11] <= -19.9188232421875) {
                                if (x[39] <= 29.0728759765625) {
                                    votes[1] += 1;
                                }

                                else {
                                    votes[0] += 1;
                                }
                            }

                            else {
                                if (x[82] <= 386.48406982421875) {
                                    votes[1] += 1;
                                }

                                else {
                                    votes[0] += 1;
                                }
                            }
                        }

                        // tree #17
                        if (x[105] <= 82.6007080078125) {
                            if (x[74] <= -1.8211669325828552) {
                                votes[1] += 1;
                            }

                            else {
                                if (x[64] <= -229.6734619140625) {
                                    votes[1] += 1;
                                }

                                else {
                                    votes[0] += 1;
                                }
                            }
                        }

                        else {
                            if (x[78] <= 0.3030394986271858) {
                                votes[0] += 1;
                            }

                            else {
                                if (x[6] <= 1.6539305448532104) {
                                    votes[1] += 1;
                                }

                                else {
                                    votes[0] += 1;
                                }
                            }
                        }

                        // tree #18
                        if (x[22] <= -112.90557861328125) {
                            if (x[76] <= -198.084716796875) {
                                votes[1] += 1;
                            }

                            else {
                                votes[0] += 1;
                            }
                        }

                        else {
                            if (x[100] <= -179.49493408203125) {
                                if (x[29] <= 42.5506591796875) {
                                    votes[1] += 1;
                                }

                                else {
                                    votes[0] += 1;
                                }
                            }

                            else {
                                if (x[52] <= 150.97991943359375) {
                                    votes[0] += 1;
                                }

                                else {
                                    votes[1] += 1;
                                }
                            }
                        }

                        // tree #19
                        if (x[76] <= -168.9739990234375) {
                            if (x[4] <= 173.436279296875) {
                                if (x[113] <= 119.0582275390625) {
                                    votes[0] += 1;
                                }

                                else {
                                    votes[1] += 1;
                                }
                            }

                            else {
                                if (x[39] <= -79.94384765625) {
                                    votes[0] += 1;
                                }

                                else {
                                    votes[1] += 1;
                                }
                            }
                        }

                        else {
                            if (x[70] <= 135.17181396484375) {
                                if (x[86] <= 3.5126949548721313) {
                                    votes[0] += 1;
                                }

                                else {
                                    votes[1] += 1;
                                }
                            }

                            else {
                                if (x[85] <= 0.5596314966678619) {
                                    votes[1] += 1;
                                }

                                else {
                                    votes[0] += 1;
                                }
                            }
                        }

                        // tree #20
                        if (x[27] <= -45.63507080078125) {
                            if (x[90] <= 0.6801145076751709) {
                                if (x[113] <= 34.342041015625) {
                                    votes[0] += 1;
                                }

                                else {
                                    votes[1] += 1;
                                }
                            }

                            else {
                                if (x[50] <= 0.48944100737571716) {
                                    votes[0] += 1;
                                }

                                else {
                                    votes[1] += 1;
                                }
                            }
                        }

                        else {
                            if (x[70] <= -168.82598876953125) {
                                if (x[53] <= -100.71380615234375) {
                                    votes[0] += 1;
                                }

                                else {
                                    votes[1] += 1;
                                }
                            }

                            else {
                                if (x[64] <= 188.5699462890625) {
                                    votes[0] += 1;
                                }

                                else {
                                    votes[1] += 1;
                                }
                            }
                        }

                        // tree #21
                        if (x[22] <= 163.11370849609375) {
                            if (x[68] <= 2.3023070096969604) {
                                if (x[54] <= 0.9963989853858948) {
                                    votes[0] += 1;
                                }

                                else {
                                    votes[0] += 1;
                                }
                            }

                            else {
                                if (x[19] <= 0.4461669921875) {
                                    votes[1] += 1;
                                }

                                else {
                                    votes[0] += 1;
                                }
                            }
                        }

                        else {
                            if (x[35] <= 77.2491455078125) {
                                if (x[110] <= 0.4683225005865097) {
                                    votes[0] += 1;
                                }

                                else {
                                    votes[1] += 1;
                                }
                            }

                            else {
                                votes[0] += 1;
                            }
                        }

                        // tree #22
                        if (x[70] <= 169.59564208984375) {
                            if (x[28] <= 135.5303955078125) {
                                if (x[94] <= 149.60662841796875) {
                                    votes[0] += 1;
                                }

                                else {
                                    votes[1] += 1;
                                }
                            }

                            else {
                                if (x[39] <= -79.94384765625) {
                                    votes[0] += 1;
                                }

                                else {
                                    votes[1] += 1;
                                }
                            }
                        }

                        else {
                            if (x[8] <= 0.050170499831438065) {
                                votes[0] += 1;
                            }

                            else {
                                if (x[27] <= 75.6988525390625) {
                                    votes[1] += 1;
                                }

                                else {
                                    votes[0] += 1;
                                }
                            }
                        }

                        // tree #23
                        if (x[76] <= -181.36871337890625) {
                            if (x[23] <= 46.2432861328125) {
                                if (x[113] <= 166.1273193359375) {
                                    votes[1] += 1;
                                }

                                else {
                                    votes[0] += 1;
                                }
                            }

                            else {
                                if (x[12] <= 1.13458251953125) {
                                    votes[1] += 1;
                                }

                                else {
                                    votes[0] += 1;
                                }
                            }
                        }

                        else {
                            if (x[112] <= -209.083251953125) {
                                if (x[46] <= 10.4388427734375) {
                                    votes[0] += 1;
                                }

                                else {
                                    votes[1] += 1;
                                }
                            }

                            else {
                                if (x[82] <= 176.12640380859375) {
                                    votes[0] += 1;
                                }

                                else {
                                    votes[1] += 1;
                                }
                            }
                        }

                        // tree #24
                        if (x[66] <= 1.1154175400733948) {
                            if (x[2] <= 2.4749754667282104) {
                                if (x[100] <= -164.075927734375) {
                                    votes[1] += 1;
                                }

                                else {
                                    votes[0] += 1;
                                }
                            }

                            else {
                                if (x[17] <= 107.9498291015625) {
                                    votes[1] += 1;
                                }

                                else {
                                    votes[0] += 1;
                                }
                            }
                        }

                        else {
                            if (x[72] <= 1.941406488418579) {
                                if (x[23] <= 102.57476806640625) {
                                    votes[1] += 1;
                                }

                                else {
                                    votes[0] += 1;
                                }
                            }

                            else {
                                votes[0] += 1;
                            }
                        }

                        // tree #25
                        if (x[88] <= 204.64813232421875) {
                            if (x[26] <= -2.702941417694092) {
                                votes[1] += 1;
                            }

                            else {
                                if (x[88] <= -64.74884033203125) {
                                    votes[0] += 1;
                                }

                                else {
                                    votes[0] += 1;
                                }
                            }
                        }

                        else {
                            if (x[24] <= 0.7982789874076843) {
                                votes[1] += 1;
                            }

                            else {
                                if (x[1] <= 0.21728499978780746) {
                                    votes[1] += 1;
                                }

                                else {
                                    votes[0] += 1;
                                }
                            }
                        }

                        // tree #26
                        if (x[74] <= 1.2338870167732239) {
                            if (x[106] <= -161.2530517578125) {
                                if (x[96] <= 0.7834474742412567) {
                                    votes[0] += 1;
                                }

                                else {
                                    votes[1] += 1;
                                }
                            }

                            else {
                                if (x[76] <= 227.30438232421875) {
                                    votes[0] += 1;
                                }

                                else {
                                    votes[0] += 1;
                                }
                            }
                        }

                        else {
                            if (x[82] <= -105.16632080078125) {
                                votes[1] += 1;
                            }

                            else {
                                if (x[34] <= -69.21661376953125) {
                                    votes[0] += 1;
                                }

                                else {
                                    votes[1] += 1;
                                }
                            }
                        }

                        // tree #27
                        if (x[22] <= 139.21844482421875) {
                            if (x[78] <= 0.8210450112819672) {
                                if (x[94] <= 145.2960205078125) {
                                    votes[0] += 1;
                                }

                                else {
                                    votes[0] += 1;
                                }
                            }

                            else {
                                if (x[4] <= -32.5909423828125) {
                                    votes[0] += 1;
                                }

                                else {
                                    votes[1] += 1;
                                }
                            }
                        }

                        else {
                            if (x[37] <= 0.6788940131664276) {
                                if (x[95] <= -8.799438714981079) {
                                    votes[0] += 1;
                                }

                                else {
                                    votes[1] += 1;
                                }
                            }

                            else {
                                if (x[107] <= 87.8192138671875) {
                                    votes[0] += 1;
                                }

                                else {
                                    votes[1] += 1;
                                }
                            }
                        }

                        // tree #28
                        if (x[66] <= 1.05560302734375) {
                            if (x[67] <= -0.03698750026524067) {
                                if (x[90] <= 0.37432900071144104) {
                                    votes[0] += 1;
                                }

                                else {
                                    votes[1] += 1;
                                }
                            }

                            else {
                                if (x[114] <= -0.5567020028829575) {
                                    votes[1] += 1;
                                }

                                else {
                                    votes[0] += 1;
                                }
                            }
                        }

                        else {
                            if (x[22] <= -5.27008056640625) {
                                if (x[49] <= 1.4914554953575134) {
                                    votes[0] += 1;
                                }

                                else {
                                    votes[1] += 1;
                                }
                            }

                            else {
                                if (x[58] <= -351.61407470703125) {
                                    votes[0] += 1;
                                }

                                else {
                                    votes[1] += 1;
                                }
                            }
                        }

                        // tree #29
                        if (x[98] <= -1.8609009981155396) {
                            votes[1] += 1;
                        }

                        else {
                            if (x[88] <= -170.557861328125) {
                                if (x[83] <= -65.4205322265625) {
                                    votes[0] += 1;
                                }

                                else {
                                    votes[1] += 1;
                                }
                            }

                            else {
                                if (x[116] <= -1.9008179903030396) {
                                    votes[1] += 1;
                                }

                                else {
                                    votes[0] += 1;
                                }
                            }
                        }

                        // tree #30
                        if (x[66] <= 1.05560302734375) {
                            if (x[14] <= 2.354552984237671) {
                                if (x[62] <= 2.495177984237671) {
                                    votes[0] += 1;
                                }

                                else {
                                    votes[1] += 1;
                                }
                            }

                            else {
                                if (x[4] <= -257.7801513671875) {
                                    votes[0] += 1;
                                }

                                else {
                                    votes[1] += 1;
                                }
                            }
                        }

                        else {
                            if (x[30] <= 1.5010374784469604) {
                                if (x[14] <= 0.17938199639320374) {
                                    votes[0] += 1;
                                }

                                else {
                                    votes[1] += 1;
                                }
                            }

                            else {
                                if (x[43] <= 0.2096555009484291) {
                                    votes[0] += 1;
                                }

                                else {
                                    votes[1] += 1;
                                }
                            }
                        }

                        // tree #31
                        if (x[16] <= 208.0096435546875) {
                            if (x[53] <= -27.4566650390625) {
                                if (x[94] <= 118.1658935546875) {
                                    votes[0] += 1;
                                }

                                else {
                                    votes[1] += 1;
                                }
                            }

                            else {
                                if (x[34] <= 240.67108154296875) {
                                    votes[0] += 1;
                                }

                                else {
                                    votes[1] += 1;
                                }
                            }
                        }

                        else {
                            if (x[29] <= 86.1907958984375) {
                                if (x[85] <= -0.38183601200580597) {
                                    votes[0] += 1;
                                }

                                else {
                                    votes[1] += 1;
                                }
                            }

                            else {
                                votes[0] += 1;
                            }
                        }

                        // tree #32
                        if (x[23] <= -49.41375732421875) {
                            if (x[17] <= -160.8380126953125) {
                                votes[0] += 1;
                            }

                            else {
                                if (x[54] <= 0.49713149666786194) {
                                    votes[0] += 1;
                                }

                                else {
                                    votes[1] += 1;
                                }
                            }
                        }

                        else {
                            if (x[109] <= -0.2794190049171448) {
                                if (x[26] <= 0.006286997348070145) {
                                    votes[0] += 1;
                                }

                                else {
                                    votes[1] += 1;
                                }
                            }

                            else {
                                if (x[92] <= -0.9890139997005463) {
                                    votes[1] += 1;
                                }

                                else {
                                    votes[0] += 1;
                                }
                            }
                        }

                        // tree #33
                        if (x[72] <= 1.0982054471969604) {
                            if (x[101] <= 34.4329833984375) {
                                if (x[70] <= -206.02691650390625) {
                                    votes[1] += 1;
                                }

                                else {
                                    votes[0] += 1;
                                }
                            }

                            else {
                                if (x[13] <= 0.5028690099716187) {
                                    votes[0] += 1;
                                }

                                else {
                                    votes[1] += 1;
                                }
                            }
                        }

                        else {
                            if (x[80] <= 0.21075449883937836) {
                                votes[0] += 1;
                            }

                            else {
                                if (x[111] <= -51.2542724609375) {
                                    votes[0] += 1;
                                }

                                else {
                                    votes[1] += 1;
                                }
                            }
                        }

                        // tree #34
                        if (x[4] <= 167.7569580078125) {
                            if (x[70] <= 158.1134033203125) {
                                if (x[14] <= -1.5408934950828552) {
                                    votes[1] += 1;
                                }

                                else {
                                    votes[0] += 1;
                                }
                            }

                            else {
                                if (x[21] <= 68.7152099609375) {
                                    votes[1] += 1;
                                }

                                else {
                                    votes[0] += 1;
                                }
                            }
                        }

                        else {
                            if (x[25] <= 0.6501465141773224) {
                                if (x[82] <= -14.0972900390625) {
                                    votes[1] += 1;
                                }

                                else {
                                    votes[0] += 1;
                                }
                            }

                            else {
                                votes[0] += 1;
                            }
                        }

                        // tree #35
                        if (x[66] <= 1.10504150390625) {
                            if (x[2] <= 2.521239995956421) {
                                if (x[82] <= 172.58636474609375) {
                                    votes[0] += 1;
                                }

                                else {
                                    votes[0] += 1;
                                }
                            }

                            else {
                                if (x[23] <= 93.0267333984375) {
                                    votes[1] += 1;
                                }

                                else {
                                    votes[0] += 1;
                                }
                            }
                        }

                        else {
                            if (x[29] <= 29.26055908203125) {
                                if (x[106] <= 396.20697021484375) {
                                    votes[1] += 1;
                                }

                                else {
                                    votes[0] += 1;
                                }
                            }

                            else {
                                votes[0] += 1;
                            }
                        }

                        // tree #36
                        if (x[66] <= 1.10504150390625) {
                            if (x[34] <= 135.01922607421875) {
                                if (x[84] <= 0.5606689751148224) {
                                    votes[0] += 1;
                                }

                                else {
                                    votes[0] += 1;
                                }
                            }

                            else {
                                if (x[101] <= -52.2064208984375) {
                                    votes[0] += 1;
                                }

                                else {
                                    votes[1] += 1;
                                }
                            }
                        }

                        else {
                            if (x[73] <= 1.4367675185203552) {
                                if (x[99] <= 156.3311767578125) {
                                    votes[1] += 1;
                                }

                                else {
                                    votes[0] += 1;
                                }
                            }

                            else {
                                votes[0] += 1;
                            }
                        }

                        // tree #37
                        if (x[16] <= -89.1796875) {
                            if (x[4] <= 7.753295715898275) {
                                if (x[64] <= -135.43975830078125) {
                                    votes[0] += 1;
                                }

                                else {
                                    votes[0] += 1;
                                }
                            }

                            else {
                                if (x[71] <= -36.8560791015625) {
                                    votes[1] += 1;
                                }

                                else {
                                    votes[0] += 1;
                                }
                            }
                        }

                        else {
                            if (x[52] <= 140.57342529296875) {
                                if (x[62] <= 1.0085449814796448) {
                                    votes[0] += 1;
                                }

                                else {
                                    votes[1] += 1;
                                }
                            }

                            else {
                                if (x[72] <= -0.2540284991264343) {
                                    votes[0] += 1;
                                }

                                else {
                                    votes[1] += 1;
                                }
                            }
                        }

                        // tree #38
                        if (x[32] <= 1.6313479542732239) {
                            if (x[80] <= 1.1530759930610657) {
                                if (x[56] <= -1.9047855138778687) {
                                    votes[1] += 1;
                                }

                                else {
                                    votes[0] += 1;
                                }
                            }

                            else {
                                if (x[105] <= -96.29425048828125) {
                                    votes[0] += 1;
                                }

                                else {
                                    votes[1] += 1;
                                }
                            }
                        }

                        else {
                            if (x[9] <= 50.4351806640625) {
                                if (x[18] <= 1.2597045302391052) {
                                    votes[1] += 1;
                                }

                                else {
                                    votes[0] += 1;
                                }
                            }

                            else {
                                votes[0] += 1;
                            }
                        }

                        // tree #39
                        if (x[90] <= 0.4444579929113388) {
                            if (x[64] <= 269.47967529296875) {
                                if (x[16] <= 266.94671630859375) {
                                    votes[0] += 1;
                                }

                                else {
                                    votes[1] += 1;
                                }
                            }

                            else {
                                if (x[104] <= 0.14569100458174944) {
                                    votes[1] += 1;
                                }

                                else {
                                    votes[0] += 1;
                                }
                            }
                        }

                        else {
                            if (x[64] <= -173.55621337890625) {
                                if (x[36] <= -0.5620725005865097) {
                                    votes[0] += 1;
                                }

                                else {
                                    votes[1] += 1;
                                }
                            }

                            else {
                                if (x[118] <= -45.19927978515625) {
                                    votes[1] += 1;
                                }

                                else {
                                    votes[0] += 1;
                                }
                            }
                        }

                        // tree #40
                        if (x[59] <= -45.2679443359375) {
                            if (x[22] <= -59.68292236328125) {
                                votes[0] += 1;
                            }

                            else {
                                if (x[112] <= -65.55908203125) {
                                    votes[1] += 1;
                                }

                                else {
                                    votes[0] += 1;
                                }
                            }
                        }

                        else {
                            if (x[26] <= 0.06213399954140186) {
                                if (x[47] <= 25.07965087890625) {
                                    votes[0] += 1;
                                }

                                else {
                                    votes[1] += 1;
                                }
                            }

                            else {
                                if (x[46] <= 94.96795654296875) {
                                    votes[0] += 1;
                                }

                                else {
                                    votes[1] += 1;
                                }
                            }
                        }

                        // tree #41
                        if (x[86] <= 1.043761968612671) {
                            if (x[58] <= 165.59783935546875) {
                                if (x[62] <= 2.551635503768921) {
                                    votes[0] += 1;
                                }

                                else {
                                    votes[1] += 1;
                                }
                            }

                            else {
                                if (x[88] <= -232.66876220703125) {
                                    votes[0] += 1;
                                }

                                else {
                                    votes[1] += 1;
                                }
                            }
                        }

                        else {
                            if (x[26] <= 0.7063600122928619) {
                                if (x[86] <= 2.88629150390625) {
                                    votes[1] += 1;
                                }

                                else {
                                    votes[0] += 1;
                                }
                            }

                            else {
                                if (x[12] <= 0.3905029892921448) {
                                    votes[0] += 1;
                                }

                                else {
                                    votes[1] += 1;
                                }
                            }
                        }

                        // tree #42
                        if (x[110] <= -1.1654660105705261) {
                            if (x[111] <= -79.1473388671875) {
                                votes[0] += 1;
                            }

                            else {
                                votes[1] += 1;
                            }
                        }

                        else {
                            if (x[70] <= -176.33331298828125) {
                                if (x[25] <= 0.3801269978284836) {
                                    votes[1] += 1;
                                }

                                else {
                                    votes[0] += 1;
                                }
                            }

                            else {
                                if (x[34] <= 136.2322998046875) {
                                    votes[0] += 1;
                                }

                                else {
                                    votes[1] += 1;
                                }
                            }
                        }

                        // tree #43
                        if (x[105] <= 64.5037841796875) {
                            if (x[118] <= -175.5657958984375) {
                                if (x[14] <= 0.48107899725437164) {
                                    votes[0] += 1;
                                }

                                else {
                                    votes[1] += 1;
                                }
                            }

                            else {
                                if (x[80] <= 2.78369140625) {
                                    votes[0] += 1;
                                }

                                else {
                                    votes[1] += 1;
                                }
                            }
                        }

                        else {
                            if (x[107] <= -11.591491937637329) {
                                if (x[19] <= 0.37127698957920074) {
                                    votes[1] += 1;
                                }

                                else {
                                    votes[0] += 1;
                                }
                            }

                            else {
                                if (x[28] <= 396.91650390625) {
                                    votes[1] += 1;
                                }

                                else {
                                    votes[0] += 1;
                                }
                            }
                        }

                        // tree #44
                        if (x[60] <= 0.8710325062274933) {
                            if (x[68] <= -1.4455565214157104) {
                                if (x[25] <= 0.8181155025959015) {
                                    votes[1] += 1;
                                }

                                else {
                                    votes[0] += 1;
                                }
                            }

                            else {
                                if (x[117] <= 69.5391845703125) {
                                    votes[0] += 1;
                                }

                                else {
                                    votes[0] += 1;
                                }
                            }
                        }

                        else {
                            if (x[11] <= 34.9212646484375) {
                                if (x[1] <= 0.5996704995632172) {
                                    votes[1] += 1;
                                }

                                else {
                                    votes[0] += 1;
                                }
                            }

                            else {
                                if (x[102] <= 0.09295649826526642) {
                                    votes[1] += 1;
                                }

                                else {
                                    votes[0] += 1;
                                }
                            }
                        }

                        // tree #45
                        if (x[118] <= -103.663330078125) {
                            if (x[84] <= 0.9158324897289276) {
                                if (x[40] <= 8.72528076171875) {
                                    votes[0] += 1;
                                }

                                else {
                                    votes[1] += 1;
                                }
                            }

                            else {
                                if (x[79] <= 1.5700074434280396) {
                                    votes[1] += 1;
                                }

                                else {
                                    votes[0] += 1;
                                }
                            }
                        }

                        else {
                            if (x[74] <= 1.2101439833641052) {
                                if (x[94] <= 148.2257080078125) {
                                    votes[0] += 1;
                                }

                                else {
                                    votes[0] += 1;
                                }
                            }

                            else {
                                if (x[93] <= -113.84185791015625) {
                                    votes[0] += 1;
                                }

                                else {
                                    votes[1] += 1;
                                }
                            }
                        }

                        // tree #46
                        if (x[80] <= 1.1660155057907104) {
                            if (x[118] <= -97.3187255859375) {
                                if (x[40] <= 8.72528076171875) {
                                    votes[0] += 1;
                                }

                                else {
                                    votes[1] += 1;
                                }
                            }

                            else {
                                if (x[58] <= 341.3104248046875) {
                                    votes[0] += 1;
                                }

                                else {
                                    votes[1] += 1;
                                }
                            }
                        }

                        else {
                            if (x[117] <= -57.96417236328125) {
                                if (x[41] <= 119.95880126953125) {
                                    votes[0] += 1;
                                }

                                else {
                                    votes[1] += 1;
                                }
                            }

                            else {
                                if (x[72] <= 0.3424070030450821) {
                                    votes[0] += 1;
                                }

                                else {
                                    votes[1] += 1;
                                }
                            }
                        }

                        // tree #47
                        if (x[61] <= -0.024597499519586563) {
                            if (x[90] <= 0.8584595024585724) {
                                if (x[54] <= 0.4808349907398224) {
                                    votes[0] += 1;
                                }

                                else {
                                    votes[1] += 1;
                                }
                            }

                            else {
                                if (x[2] <= 0.261352501809597) {
                                    votes[0] += 1;
                                }

                                else {
                                    votes[1] += 1;
                                }
                            }
                        }

                        else {
                            if (x[70] <= -210.69610595703125) {
                                if (x[13] <= 0.7429200112819672) {
                                    votes[1] += 1;
                                }

                                else {
                                    votes[0] += 1;
                                }
                            }

                            else {
                                if (x[53] <= -17.3248291015625) {
                                    votes[0] += 1;
                                }

                                else {
                                    votes[0] += 1;
                                }
                            }
                        }

                        // tree #48
                        if (x[70] <= -183.009033203125) {
                            if (x[77] <= -113.5772705078125) {
                                votes[0] += 1;
                            }

                            else {
                                if (x[88] <= -413.16802978515625) {
                                    votes[0] += 1;
                                }

                                else {
                                    votes[1] += 1;
                                }
                            }
                        }

                        else {
                            if (x[104] <= -1.327697515487671) {
                                votes[1] += 1;
                            }

                            else {
                                if (x[106] <= -226.5301513671875) {
                                    votes[1] += 1;
                                }

                                else {
                                    votes[0] += 1;
                                }
                            }
                        }

                        // tree #49
                        if (x[95] <= 22.7142333984375) {
                            if (x[104] <= -1.327697515487671) {
                                votes[1] += 1;
                            }

                            else {
                                if (x[62] <= 2.521239995956421) {
                                    votes[0] += 1;
                                }

                                else {
                                    votes[1] += 1;
                                }
                            }
                        }

                        else {
                            if (x[115] <= 0.3025510013103485) {
                                if (x[72] <= -0.7230225205421448) {
                                    votes[0] += 1;
                                }

                                else {
                                    votes[1] += 1;
                                }
                            }

                            else {
                                if (x[82] <= -117.8875732421875) {
                                    votes[1] += 1;
                                }

                                else {
                                    votes[0] += 1;
                                }
                            }
                        }

                        // tree #50
                        if (x[21] <= -4.404906988143921) {
                            if (x[84] <= 0.6367799937725067) {
                                if (x[102] <= 0.6083984971046448) {
                                    votes[0] += 1;
                                }

                                else {
                                    votes[1] += 1;
                                }
                            }

                            else {
                                if (x[11] <= 71.2982177734375) {
                                    votes[1] += 1;
                                }

                                else {
                                    votes[0] += 1;
                                }
                            }
                        }

                        else {
                            if (x[94] <= -147.73834228515625) {
                                if (x[79] <= 0.3753049969673157) {
                                    votes[1] += 1;
                                }

                                else {
                                    votes[0] += 1;
                                }
                            }

                            else {
                                if (x[68] <= 1.8656005263328552) {
                                    votes[0] += 1;
                                }

                                else {
                                    votes[1] += 1;
                                }
                            }
                        }

                        // tree #51
                        if (x[88] <= -121.89453125) {
                            if (x[39] <= -122.11212158203125) {
                                votes[0] += 1;
                            }

                            else {
                                if (x[100] <= -395.14434814453125) {
                                    votes[0] += 1;
                                }

                                else {
                                    votes[1] += 1;
                                }
                            }
                        }

                        else {
                            if (x[58] <= 200.44891357421875) {
                                if (x[86] <= 1.428344488143921) {
                                    votes[0] += 1;
                                }

                                else {
                                    votes[0] += 1;
                                }
                            }

                            else {
                                if (x[119] <= -55.7769775390625) {
                                    votes[0] += 1;
                                }

                                else {
                                    votes[1] += 1;
                                }
                            }
                        }

                        // tree #52
                        if (x[106] <= -161.2530517578125) {
                            if (x[28] <= -35.3955078125) {
                                votes[0] += 1;
                            }

                            else {
                                if (x[51] <= -207.0721435546875) {
                                    votes[0] += 1;
                                }

                                else {
                                    votes[1] += 1;
                                }
                            }
                        }

                        else {
                            if (x[76] <= -151.820068359375) {
                                if (x[74] <= 1.001159518957138) {
                                    votes[0] += 1;
                                }

                                else {
                                    votes[1] += 1;
                                }
                            }

                            else {
                                if (x[88] <= 204.3475341796875) {
                                    votes[0] += 1;
                                }

                                else {
                                    votes[1] += 1;
                                }
                            }
                        }

                        // tree #53
                        if (x[107] <= 49.3560791015625) {
                            if (x[67] <= 1.330810546875) {
                                if (x[68] <= 1.0754395127296448) {
                                    votes[0] += 1;
                                }

                                else {
                                    votes[1] += 1;
                                }
                            }

                            else {
                                if (x[116] <= -0.11071749031543732) {
                                    votes[1] += 1;
                                }

                                else {
                                    votes[0] += 1;
                                }
                            }
                        }

                        else {
                            if (x[20] <= 0.45849598944187164) {
                                if (x[81] <= 127.18292236328125) {
                                    votes[0] += 1;
                                }

                                else {
                                    votes[1] += 1;
                                }
                            }

                            else {
                                if (x[117] <= 133.13690185546875) {
                                    votes[1] += 1;
                                }

                                else {
                                    votes[0] += 1;
                                }
                            }
                        }

                        // tree #54
                        if (x[60] <= 0.83941650390625) {
                            if (x[74] <= -1.5670164823532104) {
                                votes[1] += 1;
                            }

                            else {
                                if (x[110] <= -0.7310789823532104) {
                                    votes[1] += 1;
                                }

                                else {
                                    votes[0] += 1;
                                }
                            }
                        }

                        else {
                            if (x[44] <= -1.597656011581421) {
                                votes[1] += 1;
                            }

                            else {
                                if (x[58] <= 248.62396240234375) {
                                    votes[0] += 1;
                                }

                                else {
                                    votes[1] += 1;
                                }
                            }
                        }

                        // tree #55
                        if (x[22] <= 138.084716796875) {
                            if (x[68] <= 2.4241939783096313) {
                                if (x[110] <= -1.1433104872703552) {
                                    votes[1] += 1;
                                }

                                else {
                                    votes[0] += 1;
                                }
                            }

                            else {
                                if (x[0] <= 0.07220450043678284) {
                                    votes[0] += 1;
                                }

                                else {
                                    votes[1] += 1;
                                }
                            }
                        }

                        else {
                            if (x[29] <= 61.7462158203125) {
                                if (x[0] <= 1.8123779892921448) {
                                    votes[1] += 1;
                                }

                                else {
                                    votes[0] += 1;
                                }
                            }

                            else {
                                votes[0] += 1;
                            }
                        }

                        // tree #56
                        if (x[119] <= 15.41656494140625) {
                            if (x[82] <= -87.09991455078125) {
                                if (x[39] <= -86.86737060546875) {
                                    votes[0] += 1;
                                }

                                else {
                                    votes[1] += 1;
                                }
                            }

                            else {
                                if (x[77] <= -34.0478515625) {
                                    votes[0] += 1;
                                }

                                else {
                                    votes[0] += 1;
                                }
                            }
                        }

                        else {
                            if (x[112] <= -50.0469970703125) {
                                if (x[114] <= 0.14227250218391418) {
                                    votes[0] += 1;
                                }

                                else {
                                    votes[1] += 1;
                                }
                            }

                            else {
                                if (x[88] <= -110.56793212890625) {
                                    votes[1] += 1;
                                }

                                else {
                                    votes[0] += 1;
                                }
                            }
                        }

                        // tree #57
                        if (x[88] <= -140.10894775390625) {
                            if (x[5] <= 56.8328857421875) {
                                if (x[94] <= -127.55401611328125) {
                                    votes[1] += 1;
                                }

                                else {
                                    votes[0] += 1;
                                }
                            }

                            else {
                                if (x[80] <= -2.17791748046875) {
                                    votes[1] += 1;
                                }

                                else {
                                    votes[0] += 1;
                                }
                            }
                        }

                        else {
                            if (x[118] <= -192.286376953125) {
                                if (x[73] <= 0.7415159940719604) {
                                    votes[1] += 1;
                                }

                                else {
                                    votes[0] += 1;
                                }
                            }

                            else {
                                if (x[116] <= -1.9008179903030396) {
                                    votes[1] += 1;
                                }

                                else {
                                    votes[0] += 1;
                                }
                            }
                        }

                        // tree #58
                        if (x[96] <= 0.822021484375) {
                            if (x[110] <= -1.111083984375) {
                                votes[1] += 1;
                            }

                            else {
                                if (x[74] <= 1.6972044706344604) {
                                    votes[0] += 1;
                                }

                                else {
                                    votes[1] += 1;
                                }
                            }
                        }

                        else {
                            if (x[59] <= -38.09173583984375) {
                                if (x[91] <= 0.7958984971046448) {
                                    votes[1] += 1;
                                }

                                else {
                                    votes[0] += 1;
                                }
                            }

                            else {
                                if (x[89] <= -37.8631591796875) {
                                    votes[0] += 1;
                                }

                                else {
                                    votes[1] += 1;
                                }
                            }
                        }

                        // tree #59
                        if (x[76] <= -155.59967041015625) {
                            if (x[73] <= 0.4083250015974045) {
                                if (x[83] <= -70.3338623046875) {
                                    votes[0] += 1;
                                }

                                else {
                                    votes[1] += 1;
                                }
                            }

                            else {
                                if (x[13] <= 0.27081298828125) {
                                    votes[1] += 1;
                                }

                                else {
                                    votes[0] += 1;
                                }
                            }
                        }

                        else {
                            if (x[116] <= -1.0463870167732239) {
                                if (x[93] <= -98.1549072265625) {
                                    votes[0] += 1;
                                }

                                else {
                                    votes[1] += 1;
                                }
                            }

                            else {
                                if (x[59] <= -20.9869384765625) {
                                    votes[0] += 1;
                                }

                                else {
                                    votes[0] += 1;
                                }
                            }
                        }

                        // tree #60
                        if (x[64] <= 179.3536376953125) {
                            if (x[22] <= 124.7576904296875) {
                                if (x[100] <= 208.3148193359375) {
                                    votes[0] += 1;
                                }

                                else {
                                    votes[1] += 1;
                                }
                            }

                            else {
                                if (x[77] <= -28.5247802734375) {
                                    votes[0] += 1;
                                }

                                else {
                                    votes[1] += 1;
                                }
                            }
                        }

                        else {
                            if (x[41] <= 74.8492431640625) {
                                if (x[46] <= 28.5662841796875) {
                                    votes[0] += 1;
                                }

                                else {
                                    votes[1] += 1;
                                }
                            }

                            else {
                                if (x[55] <= 0.2144164890050888) {
                                    votes[1] += 1;
                                }

                                else {
                                    votes[0] += 1;
                                }
                            }
                        }

                        // tree #61
                        if (x[84] <= 0.9620975255966187) {
                            if (x[34] <= 116.2432861328125) {
                                if (x[46] <= 94.96795654296875) {
                                    votes[0] += 1;
                                }

                                else {
                                    votes[0] += 1;
                                }
                            }

                            else {
                                if (x[96] <= 0.7904054820537567) {
                                    votes[0] += 1;
                                }

                                else {
                                    votes[1] += 1;
                                }
                            }
                        }

                        else {
                            if (x[10] <= -59.32891845703125) {
                                if (x[59] <= -95.9075927734375) {
                                    votes[1] += 1;
                                }

                                else {
                                    votes[0] += 1;
                                }
                            }

                            else {
                                if (x[52] <= 95.5218505859375) {
                                    votes[1] += 1;
                                }

                                else {
                                    votes[1] += 1;
                                }
                            }
                        }

                        // tree #62
                        if (x[84] <= 0.7302244901657104) {
                            if (x[96] <= 0.8332520127296448) {
                                if (x[86] <= -1.3759154677391052) {
                                    votes[1] += 1;
                                }

                                else {
                                    votes[0] += 1;
                                }
                            }

                            else {
                                if (x[38] <= 0.6509400010108948) {
                                    votes[0] += 1;
                                }

                                else {
                                    votes[1] += 1;
                                }
                            }
                        }

                        else {
                            if (x[83] <= -225.6878662109375) {
                                votes[0] += 1;
                            }

                            else {
                                if (x[60] <= 0.9508665204048157) {
                                    votes[0] += 1;
                                }

                                else {
                                    votes[1] += 1;
                                }
                            }
                        }

                        // tree #63
                        if (x[72] <= 1.07720947265625) {
                            if (x[2] <= 2.4749754667282104) {
                                if (x[88] <= 211.3360595703125) {
                                    votes[0] += 1;
                                }

                                else {
                                    votes[1] += 1;
                                }
                            }

                            else {
                                if (x[113] <= -69.52484130859375) {
                                    votes[0] += 1;
                                }

                                else {
                                    votes[1] += 1;
                                }
                            }
                        }

                        else {
                            if (x[5] <= 48.7457275390625) {
                                if (x[62] <= 0.7674559950828552) {
                                    votes[0] += 1;
                                }

                                else {
                                    votes[1] += 1;
                                }
                            }

                            else {
                                if (x[50] <= 2.2823485732078552) {
                                    votes[0] += 1;
                                }

                                else {
                                    votes[1] += 1;
                                }
                            }
                        }

                        // tree #64
                        if (x[94] <= -257.54058837890625) {
                            if (x[2] <= 0.43908699601888657) {
                                votes[0] += 1;
                            }

                            else {
                                if (x[11] <= 90.3216552734375) {
                                    votes[1] += 1;
                                }

                                else {
                                    votes[0] += 1;
                                }
                            }
                        }

                        else {
                            if (x[68] <= 1.0024415254592896) {
                                if (x[86] <= -2.9752804040908813) {
                                    votes[1] += 1;
                                }

                                else {
                                    votes[0] += 1;
                                }
                            }

                            else {
                                if (x[92] <= 1.2666625380516052) {
                                    votes[0] += 1;
                                }

                                else {
                                    votes[1] += 1;
                                }
                            }
                        }

                        // tree #65
                        if (x[96] <= 0.8197019994258881) {
                            if (x[60] <= 0.8601075112819672) {
                                if (x[28] <= 307.68768310546875) {
                                    votes[0] += 1;
                                }

                                else {
                                    votes[1] += 1;
                                }
                            }

                            else {
                                if (x[8] <= 0.056640500202775) {
                                    votes[0] += 1;
                                }

                                else {
                                    votes[1] += 1;
                                }
                            }
                        }

                        else {
                            if (x[85] <= 0.07421850040555) {
                                if (x[22] <= -198.62945556640625) {
                                    votes[0] += 1;
                                }

                                else {
                                    votes[1] += 1;
                                }
                            }

                            else {
                                if (x[101] <= 0.16174298524856567) {
                                    votes[0] += 1;
                                }

                                else {
                                    votes[1] += 1;
                                }
                            }
                        }

                        // tree #66
                        if (x[82] <= -154.090576171875) {
                            if (x[55] <= 0.2843630015850067) {
                                votes[1] += 1;
                            }

                            else {
                                if (x[31] <= 0.3618770092725754) {
                                    votes[1] += 1;
                                }

                                else {
                                    votes[0] += 1;
                                }
                            }
                        }

                        else {
                            if (x[82] <= 174.4708251953125) {
                                if (x[74] <= -1.735412985086441) {
                                    votes[1] += 1;
                                }

                                else {
                                    votes[0] += 1;
                                }
                            }

                            else {
                                if (x[42] <= 0.7331539988517761) {
                                    votes[1] += 1;
                                }

                                else {
                                    votes[0] += 1;
                                }
                            }
                        }

                        // tree #67
                        if (x[68] <= 1.0604245066642761) {
                            if (x[112] <= -149.6258544921875) {
                                if (x[41] <= 81.0943603515625) {
                                    votes[1] += 1;
                                }

                                else {
                                    votes[0] += 1;
                                }
                            }

                            else {
                                if (x[114] <= -0.6011355221271515) {
                                    votes[1] += 1;
                                }

                                else {
                                    votes[0] += 1;
                                }
                            }
                        }

                        else {
                            if (x[30] <= 0.9844360053539276) {
                                if (x[33] <= 67.58514404296875) {
                                    votes[1] += 1;
                                }

                                else {
                                    votes[0] += 1;
                                }
                            }

                            else {
                                if (x[76] <= -164.93804931640625) {
                                    votes[1] += 1;
                                }

                                else {
                                    votes[0] += 1;
                                }
                            }
                        }

                        // tree #68
                        if (x[106] <= -190.69488525390625) {
                            if (x[89] <= -155.8331298828125) {
                                if (x[93] <= -29.55535888671875) {
                                    votes[1] += 1;
                                }

                                else {
                                    votes[0] += 1;
                                }
                            }

                            else {
                                if (x[42] <= 0.7957150042057037) {
                                    votes[1] += 1;
                                }

                                else {
                                    votes[1] += 1;
                                }
                            }
                        }

                        else {
                            if (x[62] <= 1.0085449814796448) {
                                if (x[58] <= -46.4764404296875) {
                                    votes[0] += 1;
                                }

                                else {
                                    votes[0] += 1;
                                }
                            }

                            else {
                                if (x[22] <= -113.7066650390625) {
                                    votes[0] += 1;
                                }

                                else {
                                    votes[1] += 1;
                                }
                            }
                        }

                        // tree #69
                        if (x[72] <= 1.0646365284919739) {
                            if (x[52] <= 216.1883544921875) {
                                if (x[64] <= -220.7928466796875) {
                                    votes[1] += 1;
                                }

                                else {
                                    votes[0] += 1;
                                }
                            }

                            else {
                                if (x[39] <= -131.4801025390625) {
                                    votes[0] += 1;
                                }

                                else {
                                    votes[1] += 1;
                                }
                            }
                        }

                        else {
                            if (x[75] <= -123.11920166015625) {
                                votes[0] += 1;
                            }

                            else {
                                if (x[16] <= -110.682373046875) {
                                    votes[0] += 1;
                                }

                                else {
                                    votes[1] += 1;
                                }
                            }
