#pragma once
#include <cstdarg>
namespace Eloquent {
    namespace ML {
        namespace Port {
            class RandomForest {
                public:
                    /**
                    * Predict class for features vector
                    */
                    int predict(float *x) {
                        uint8_t votes[2] = { 0 };
                        // tree #1
                        if (x[88] <= -165.14617919921875) {
                            if (x[89] <= -61.5301513671875) {
                                if (x[110] <= 2.36907958984375) {
                                    if (x[95] <= 10.85418701171875) {
                                        votes[0] += 1;
                                    }

                                    else {
                                        votes[0] += 1;
                                    }
                                }

                                else {
                                    if (x[118] <= 98.37310791015625) {
                                        votes[1] += 1;
                                    }

                                    else {
                                        votes[0] += 1;
                                    }
                                }
                            }

                            else {
                                if (x[110] <= 1.1006470322608948) {
                                    if (x[74] <= 0.6998295187950134) {
                                        votes[0] += 1;
                                    }

                                    else {
                                        votes[1] += 1;
                                    }
                                }

                                else {
                                    if (x[107] <= -106.376953125) {
                                        votes[0] += 1;
                                    }

                                    else {
                                        votes[1] += 1;
                                    }
                                }
                            }
                        }

                        else {
                            if (x[70] <= 179.88555908203125) {
                                if (x[58] <= -214.158935546875) {
                                    if (x[86] <= 1.3252565264701843) {
                                        votes[0] += 1;
                                    }

                                    else {
                                        votes[1] += 1;
                                    }
                                }

                                else {
                                    if (x[100] <= 235.5413818359375) {
                                        votes[0] += 1;
                                    }

                                    else {
                                        votes[0] += 1;
                                    }
                                }
                            }

                            else {
                                if (x[71] <= 87.0989990234375) {
                                    if (x[47] <= 92.51922607421875) {
                                        votes[1] += 1;
                                    }

                                    else {
                                        votes[0] += 1;
                                    }
                                }

                                else {
                                    if (x[102] <= -0.7391965091228485) {
                                        votes[0] += 1;
                                    }

                                    else {
                                        votes[0] += 1;
                                    }
                                }
                            }
                        }

                        // tree #2
                        if (x[68] <= 1.05206298828125) {
                            if (x[110] <= 1.139220952987671) {
                                if (x[32] <= 1.265197992324829) {
                                    if (x[8] <= 2.6754149198532104) {
                                        votes[0] += 1;
                                    }

                                    else {
                                        votes[0] += 1;
                                    }
                                }

                                else {
                                    if (x[46] <= 155.2044677734375) {
                                        votes[0] += 1;
                                    }

                                    else {
                                        votes[1] += 1;
                                    }
                                }
                            }

                            else {
                                if (x[106] <= -115.23712158203125) {
                                    if (x[61] <= 0.7161864936351776) {
                                        votes[1] += 1;
                                    }

                                    else {
                                        votes[0] += 1;
                                    }
                                }

                                else {
                                    if (x[88] <= -215.281982421875) {
                                        votes[1] += 1;
                                    }

                                    else {
                                        votes[0] += 1;
                                    }
                                }
                            }
                        }

                        else {
                            if (x[78] <= 0.420227512717247) {
                                if (x[4] <= 194.65484619140625) {
                                    if (x[62] <= 2.58154296875) {
                                        votes[0] += 1;
                                    }

                                    else {
                                        votes[0] += 1;
                                    }
                                }

                                else {
                                    if (x[31] <= 0.71270751953125) {
                                        votes[1] += 1;
                                    }

                                    else {
                                        votes[0] += 1;
                                    }
                                }
                            }

                            else {
                                if (x[70] <= 155.1434326171875) {
                                    if (x[76] <= -137.01446533203125) {
                                        votes[1] += 1;
                                    }

                                    else {
                                        votes[0] += 1;
                                    }
                                }

                                else {
                                    if (x[66] <= 2.292603015899658) {
                                        votes[1] += 1;
                                    }

                                    else {
                                        votes[0] += 1;
                                    }
                                }
                            }
                        }

                        // tree #3
                        if (x[72] <= 0.7092895209789276) {
                            if (x[90] <= 0.8412474989891052) {
                                if (x[64] <= -211.7913818359375) {
                                    if (x[118] <= -55.73150634765625) {
                                        votes[0] += 1;
                                    }

                                    else {
                                        votes[1] += 1;
                                    }
                                }

                                else {
                                    if (x[82] <= 208.3441162109375) {
                                        votes[0] += 1;
                                    }

                                    else {
                                        votes[1] += 1;
                                    }
                                }
                            }

                            else {
                                if (x[112] <= -214.8370361328125) {
                                    if (x[104] <= -0.02862550038844347) {
                                        votes[0] += 1;
                                    }

                                    else {
                                        votes[1] += 1;
                                    }
                                }

                                else {
                                    if (x[19] <= 0.7915650010108948) {
                                        votes[0] += 1;
                                    }

                                    else {
                                        votes[0] += 1;
                                    }
                                }
                            }
                        }

                        else {
                            if (x[88] <= -208.43780517578125) {
                                if (x[37] <= 0.8768309950828552) {
                                    if (x[80] <= 0.4904785007238388) {
                                        votes[1] += 1;
                                    }

                                    else {
                                        votes[1] += 1;
                                    }
                                }

                                else {
                                    if (x[38] <= 1.3816530108451843) {
                                        votes[0] += 1;
                                    }

                                    else {
                                        votes[1] += 1;
                                    }
                                }
                            }

                            else {
                                if (x[86] <= -1.2497560381889343) {
                                    if (x[58] <= 172.147216796875) {
                                        votes[0] += 1;
                                    }

                                    else {
                                        votes[1] += 1;
                                    }
                                }

                                else {
                                    if (x[13] <= 0.7875975072383881) {
                                        votes[0] += 1;
                                    }

                                    else {
                                        votes[0] += 1;
                                    }
                                }
                            }
                        }

                        // tree #4
                        if (x[68] <= 1.1751709580421448) {
                            if (x[118] <= -118.76495361328125) {
                                if (x[104] <= 0.7972410023212433) {
                                    if (x[119] <= -19.37225341796875) {
                                        votes[0] += 1;
                                    }

                                    else {
                                        votes[1] += 1;
                                    }
                                }

                                else {
                                    if (x[100] <= -198.28033447265625) {
                                        votes[1] += 1;
                                    }

                                    else {
                                        votes[0] += 1;
                                    }
                                }
                            }

                            else {
                                if (x[82] <= -202.40020751953125) {
                                    if (x[104] <= 1.1458739638328552) {
                                        votes[0] += 1;
                                    }

                                    else {
                                        votes[1] += 1;
                                    }
                                }

                                else {
                                    if (x[102] <= -1.0632324814796448) {
                                        votes[1] += 1;
                                    }

                                    else {
                                        votes[0] += 1;
                                    }
                                }
                            }
                        }

                        else {
                            if (x[78] <= 0.6500854790210724) {
                                if (x[4] <= 194.80865478515625) {
                                    if (x[92] <= 1.4977415204048157) {
                                        votes[0] += 1;
                                    }

                                    else {
                                        votes[0] += 1;
                                    }
                                }

                                else {
                                    if (x[92] <= 1.1567990183830261) {
                                        votes[0] += 1;
                                    }

                                    else {
                                        votes[1] += 1;
                                    }
                                }
                            }

                            else {
                                if (x[8] <= 0.25152599811553955) {
                                    if (x[25] <= 1.2210080027580261) {
                                        votes[1] += 1;
                                    }

                                    else {
                                        votes[0] += 1;
                                    }
                                }

                                else {
                                    if (x[74] <= 3.283142566680908) {
                                        votes[1] += 1;
                                    }

                                    else {
                                        votes[0] += 1;
                                    }
                                }
                            }
                        }

                        // tree #5
                        if (x[68] <= 1.1658934950828552) {
                            if (x[100] <= -134.03564453125) {
                                if (x[55] <= 0.69012451171875) {
                                    if (x[113] <= -95.52642822265625) {
                                        votes[0] += 1;
                                    }

                                    else {
                                        votes[1] += 1;
                                    }
                                }

                                else {
                                    if (x[112] <= -268.79058837890625) {
                                        votes[0] += 1;
                                    }

                                    else {
                                        votes[0] += 1;
                                    }
                                }
                            }

                            else {
                                if (x[98] <= -1.13800048828125) {
                                    if (x[87] <= -79.84161376953125) {
                                        votes[0] += 1;
                                    }

                                    else {
                                        votes[1] += 1;
                                    }
                                }

                                else {
                                    if (x[96] <= -1.4309695363044739) {
                                        votes[1] += 1;
                                    }

                                    else {
                                        votes[0] += 1;
                                    }
                                }
                            }
                        }

                        else {
                            if (x[70] <= 204.3829345703125) {
                                if (x[82] <= -114.0643310546875) {
                                    if (x[115] <= -0.0963745005428791) {
                                        votes[0] += 1;
                                    }

                                    else {
                                        votes[1] += 1;
                                    }
                                }

                                else {
                                    if (x[80] <= 1.2324219942092896) {
                                        votes[0] += 1;
                                    }

                                    else {
                                        votes[0] += 1;
                                    }
                                }
                            }

                            else {
                                if (x[58] <= -85.75714111328125) {
                                    votes[0] += 1;
                                }

                                else {
                                    if (x[5] <= -89.456787109375) {
                                        votes[0] += 1;
                                    }

                                    else {
                                        votes[1] += 1;
                                    }
                                }
                            }
                        }

                        // tree #6
                        if (x[70] <= -198.37066650390625) {
                            if (x[65] <= -84.1766357421875) {
                                if (x[20] <= -2.267883539199829) {
                                    if (x[11] <= 0.2227783203125) {
                                        votes[1] += 1;
                                    }

                                    else {
                                        votes[0] += 1;
                                    }
                                }

                                else {
                                    if (x[46] <= -236.18194580078125) {
                                        votes[0] += 1;
                                    }

                                    else {
                                        votes[0] += 1;
                                    }
                                }
                            }

                            else {
                                if (x[95] <= -102.2857666015625) {
                                    if (x[32] <= -1.2472530007362366) {
                                        votes[1] += 1;
                                    }

                                    else {
                                        votes[0] += 1;
                                    }
                                }

                                else {
                                    if (x[87] <= -128.5113525390625) {
                                        votes[0] += 1;
                                    }

                                    else {
                                        votes[1] += 1;
                                    }
                                }
                            }
                        }

                        else {
                            if (x[98] <= -1.2117310166358948) {
                                if (x[114] <= 0.6862795054912567) {
                                    if (x[44] <= 2.2247315645217896) {
                                        votes[0] += 1;
                                    }

                                    else {
                                        votes[1] += 1;
                                    }
                                }

                                else {
                                    if (x[14] <= -0.06585700251162052) {
                                        votes[0] += 1;
                                    }

                                    else {
                                        votes[1] += 1;
                                    }
                                }
                            }

                            else {
                                if (x[112] <= -215.16571044921875) {
                                    if (x[46] <= 147.90313720703125) {
                                        votes[0] += 1;
                                    }

                                    else {
                                        votes[1] += 1;
                                    }
                                }

                                else {
                                    if (x[40] <= -247.431640625) {
                                        votes[0] += 1;
                                    }

                                    else {
                                        votes[0] += 1;
                                    }
                                }
                            }
                        }

                        // tree #7
                        if (x[94] <= -170.970458984375) {
                            if (x[116] <= 0.9406739771366119) {
                                if (x[89] <= -15.6256103515625) {
                                    if (x[74] <= 0.6146239936351776) {
                                        votes[0] += 1;
                                    }

                                    else {
                                        votes[0] += 1;
                                    }
                                }

                                else {
                                    if (x[31] <= 1.0834959745407104) {
                                        votes[1] += 1;
                                    }

                                    else {
                                        votes[0] += 1;
                                    }
                                }
                            }

                            else {
                                if (x[95] <= -61.0260009765625) {
                                    if (x[16] <= 204.96551513671875) {
                                        votes[0] += 1;
                                    }

                                    else {
                                        votes[1] += 1;
                                    }
                                }

                                else {
                                    if (x[2] <= 0.12121600285172462) {
                                        votes[0] += 1;
                                    }

                                    else {
                                        votes[1] += 1;
                                    }
                                }
                            }
                        }

                        else {
                            if (x[106] <= 53.267822265625) {
                                if (x[118] <= -181.17340087890625) {
                                    if (x[109] <= 1.2648925185203552) {
                                        votes[1] += 1;
                                    }

                                    else {
                                        votes[0] += 1;
                                    }
                                }

                                else {
                                    if (x[80] <= 1.424072504043579) {
                                        votes[0] += 1;
                                    }

                                    else {
                                        votes[1] += 1;
                                    }
                                }
                            }

                            else {
                                if (x[52] <= -203.8580322265625) {
                                    if (x[110] <= -0.02325449977070093) {
                                        votes[0] += 1;
                                    }

                                    else {
                                        votes[1] += 1;
                                    }
                                }

                                else {
                                    if (x[78] <= 0.84112548828125) {
                                        votes[0] += 1;
                                    }

                                    else {
                                        votes[0] += 1;
                                    }
                                }
                            }
                        }

                        // tree #8
                        if (x[16] <= 152.7166748046875) {
                            if (x[62] <= 1.128051996231079) {
                                if (x[20] <= 1.6997680068016052) {
                                    if (x[98] <= -1.7436519861221313) {
                                        votes[1] += 1;
                                    }

                                    else {
                                        votes[0] += 1;
                                    }
                                }

                                else {
                                    if (x[17] <= 18.553466796875) {
                                        votes[1] += 1;
                                    }

                                    else {
                                        votes[0] += 1;
                                    }
                                }
                            }

                            else {
                                if (x[82] <= 181.7022705078125) {
                                    if (x[58] <= 250.38116455078125) {
                                        votes[0] += 1;
                                    }

                                    else {
                                        votes[1] += 1;
                                    }
                                }

                                else {
                                    if (x[50] <= 1.1040039658546448) {
                                        votes[0] += 1;
                                    }

                                    else {
                                        votes[1] += 1;
                                    }
                                }
                            }
                        }

                        else {
                            if (x[76] <= -154.268798828125) {
                                if (x[98] <= 1.0433350205421448) {
                                    if (x[61] <= -0.42468249797821045) {
                                        votes[1] += 1;
                                    }

                                    else {
                                        votes[0] += 1;
                                    }
                                }

                                else {
                                    if (x[77] <= -95.145263671875) {
                                        votes[0] += 1;
                                    }

                                    else {
                                        votes[1] += 1;
                                    }
                                }
                            }

                            else {
                                if (x[37] <= 0.8558349907398224) {
                                    if (x[94] <= -193.9776611328125) {
                                        votes[1] += 1;
                                    }

                                    else {
                                        votes[0] += 1;
                                    }
                                }

                                else {
                                    if (x[32] <= -3.2630615234375) {
                                        votes[1] += 1;
                                    }

                                    else {
                                        votes[0] += 1;
                                    }
                                }
                            }
                        }

                        // tree #9
                        if (x[84] <= 0.6702879965305328) {
                            if (x[68] <= 1.2872309684753418) {
                                if (x[86] <= -1.2090454697608948) {
                                    if (x[73] <= 0.59552001953125) {
                                        votes[1] += 1;
                                    }

                                    else {
                                        votes[0] += 1;
                                    }
                                }

                                else {
                                    if (x[98] <= -1.8455809950828552) {
                                        votes[1] += 1;
                                    }

                                    else {
                                        votes[0] += 1;
                                    }
                                }
                            }

                            else {
                                if (x[116] <= 1.1910399794578552) {
                                    if (x[64] <= -218.91937255859375) {
                                        votes[1] += 1;
                                    }

                                    else {
                                        votes[0] += 1;
                                    }
                                }

                                else {
                                    if (x[65] <= -110.59722900390625) {
                                        votes[0] += 1;
                                    }

                                    else {
                                        votes[1] += 1;
                                    }
                                }
                            }
                        }

                        else {
                            if (x[56] <= 0.8981934785842896) {
                                if (x[8] <= 0.9856564998626709) {
                                    if (x[26] <= -3.3995975255966187) {
                                        votes[1] += 1;
                                    }

                                    else {
                                        votes[0] += 1;
                                    }
                                }

                                else {
                                    if (x[100] <= -87.39410400390625) {
                                        votes[1] += 1;
                                    }

                                    else {
                                        votes[0] += 1;
                                    }
                                }
                            }

                            else {
                                if (x[83] <= -239.3585205078125) {
                                    if (x[46] <= 228.238525390625) {
                                        votes[0] += 1;
                                    }

                                    else {
                                        votes[1] += 1;
                                    }
                                }

                                else {
                                    if (x[51] <= 18.21319580078125) {
                                        votes[1] += 1;
                                    }

                                    else {
                                        votes[0] += 1;
                                    }
                                }
                            }
                        }

                        // tree #10
                        if (x[76] <= -178.60595703125) {
                            if (x[101] <= -122.0184326171875) {
                                if (x[72] <= -0.05688450112938881) {
                                    if (x[53] <= 50.48431396484375) {
                                        votes[1] += 1;
                                    }

                                    else {
                                        votes[0] += 1;
                                    }
                                }

                                else {
                                    if (x[101] <= -132.80487060546875) {
                                        votes[0] += 1;
                                    }

                                    else {
                                        votes[0] += 1;
                                    }
                                }
                            }

                            else {
                                if (x[68] <= 0.8142699897289276) {
                                    if (x[71] <= -21.84295654296875) {
                                        votes[0] += 1;
                                    }

                                    else {
                                        votes[1] += 1;
                                    }
                                }

                                else {
                                    if (x[88] <= 20.6011962890625) {
                                        votes[1] += 1;
                                    }

                                    else {
                                        votes[0] += 1;
                                    }
                                }
                            }
                        }

                        else {
                            if (x[88] <= 173.83819580078125) {
                                if (x[64] <= 201.94854736328125) {
                                    if (x[106] <= -241.92840576171875) {
                                        votes[1] += 1;
                                    }

                                    else {
                                        votes[0] += 1;
                                    }
                                }

                                else {
                                    if (x[101] <= -21.9732666015625) {
                                        votes[0] += 1;
                                    }

                                    else {
                                        votes[1] += 1;
                                    }
                                }
                            }

                            else {
                                if (x[70] <= 105.7275390625) {
                                    if (x[56] <= 1.2008669972419739) {
                                        votes[0] += 1;
                                    }

                                    else {
                                        votes[1] += 1;
                                    }
                                }

                                else {
                                    if (x[89] <= 83.04656982421875) {
                                        votes[1] += 1;
                                    }

                                    else {
                                        votes[0] += 1;
                                    }
                                }
                            }
                        }

                        // tree #11
                        if (x[100] <= -169.54193115234375) {
                            if (x[95] <= -88.79791259765625) {
                                if (x[80] <= 0.5770874917507172) {
                                    if (x[44] <= 2.87579345703125) {
                                        votes[0] += 1;
                                    }

                                    else {
                                        votes[0] += 1;
                                    }
                                }

                                else {
                                    if (x[5] <= -45.126953125) {
                                        votes[0] += 1;
                                    }

                                    else {
                                        votes[0] += 1;
                                    }
                                }
                            }

                            else {
                                if (x[119] <= -73.6798095703125) {
                                    if (x[82] <= -148.1317138671875) {
                                        votes[0] += 1;
                                    }

                                    else {
                                        votes[0] += 1;
                                    }
                                }

                                else {
                                    if (x[39] <= -143.78662109375) {
                                        votes[0] += 1;
                                    }

                                    else {
                                        votes[1] += 1;
                                    }
                                }
                            }
                        }

                        else {
                            if (x[74] <= 1.13714599609375) {
                                if (x[72] <= 0.8996579945087433) {
                                    if (x[64] <= 210.39764404296875) {
                                        votes[0] += 1;
                                    }

                                    else {
                                        votes[0] += 1;
                                    }
                                }

                                else {
                                    if (x[50] <= 1.7039794921875) {
                                        votes[0] += 1;
                                    }

                                    else {
                                        votes[1] += 1;
                                    }
                                }
                            }

                            else {
                                if (x[98] <= 1.5601804852485657) {
                                    if (x[104] <= -1.63189697265625) {
                                        votes[1] += 1;
                                    }

                                    else {
                                        votes[0] += 1;
                                    }
                                }

                                else {
                                    if (x[4] <= 126.7706298828125) {
                                        votes[0] += 1;
                                    }

                                    else {
                                        votes[1] += 1;
                                    }
                                }
                            }
                        }

                        // tree #12
                        if (x[94] <= -164.3609619140625) {
                            if (x[95] <= -48.75885009765625) {
                                if (x[56] <= -2.345824956893921) {
                                    if (x[78] <= 1.7030029892921448) {
                                        votes[1] += 1;
                                    }

                                    else {
                                        votes[0] += 1;
                                    }
                                }

                                else {
                                    if (x[79] <= 0.171875) {
                                        votes[0] += 1;
                                    }

                                    else {
                                        votes[0] += 1;
                                    }
                                }
                            }

                            else {
                                if (x[112] <= 162.6202392578125) {
                                    if (x[100] <= -481.39251708984375) {
                                        votes[0] += 1;
                                    }

                                    else {
                                        votes[1] += 1;
                                    }
                                }

                                else {
                                    if (x[82] <= -407.4481201171875) {
                                        votes[1] += 1;
                                    }

                                    else {
                                        votes[0] += 1;
                                    }
                                }
                            }
                        }

                        else {
                            if (x[78] <= 0.7552489936351776) {
                                if (x[62] <= 1.2083739638328552) {
                                    if (x[64] <= 209.37835693359375) {
                                        votes[0] += 1;
                                    }

                                    else {
                                        votes[1] += 1;
                                    }
                                }

                                else {
                                    if (x[112] <= 47.757568359375) {
                                        votes[0] += 1;
                                    }

                                    else {
                                        votes[1] += 1;
                                    }
                                }
                            }

                            else {
                                if (x[64] <= 157.21099853515625) {
                                    if (x[56] <= 1.0021969676017761) {
                                        votes[0] += 1;
                                    }

                                    else {
                                        votes[1] += 1;
                                    }
                                }

                                else {
                                    if (x[62] <= 0.8417359888553619) {
                                        votes[0] += 1;
                                    }

                                    else {
                                        votes[1] += 1;
                                    }
                                }
                            }
                        }

                        // tree #13
                        if (x[92] <= 1.1798095107078552) {
                            if (x[118] <= -157.4090576171875) {
                                if (x[85] <= 0.673583984375) {
                                    if (x[58] <= 46.8548583984375) {
                                        votes[0] += 1;
                                    }

                                    else {
                                        votes[1] += 1;
                                    }
                                }

                                else {
                                    if (x[79] <= 0.8080444931983948) {
                                        votes[0] += 1;
                                    }

                                    else {
                                        votes[0] += 1;
                                    }
                                }
                            }

                            else {
                                if (x[116] <= -1.7723385095596313) {
                                    if (x[79] <= 0.5823974907398224) {
                                        votes[1] += 1;
                                    }

                                    else {
                                        votes[0] += 1;
                                    }
                                }

                                else {
                                    if (x[73] <= 1.110656499862671) {
                                        votes[0] += 1;
                                    }

                                    else {
                                        votes[0] += 1;
                                    }
                                }
                            }
                        }

                        else {
                            if (x[94] <= -133.7786865234375) {
                                if (x[118] <= 156.70013427734375) {
                                    if (x[20] <= 0.3267824947834015) {
                                        votes[1] += 1;
                                    }

                                    else {
                                        votes[1] += 1;
                                    }
                                }

                                else {
                                    if (x[74] <= 0.5162354856729507) {
                                        votes[0] += 1;
                                    }

                                    else {
                                        votes[1] += 1;
                                    }
                                }
                            }

                            else {
                                if (x[40] <= -162.3211669921875) {
                                    if (x[43] <= 1.3931275010108948) {
                                        votes[1] += 1;
                                    }

                                    else {
                                        votes[0] += 1;
                                    }
                                }

                                else {
                                    if (x[62] <= 1.2042235136032104) {
                                        votes[0] += 1;
                                    }

                                    else {
                                        votes[1] += 1;
                                    }
                                }
                            }
                        }

                        // tree #14
                        if (x[106] <= -125.04608154296875) {
                            if (x[47] <= 49.15374755859375) {
                                if (x[97] <= 1.3920900225639343) {
                                    if (x[14] <= 0.22991950064897537) {
                                        votes[0] += 1;
                                    }

                                    else {
                                        votes[1] += 1;
                                    }
                                }

                                else {
                                    if (x[61] <= -1.3590089678764343) {
                                        votes[1] += 1;
                                    }

                                    else {
                                        votes[0] += 1;
                                    }
                                }
                            }

                            else {
                                if (x[113] <= -21.9390869140625) {
                                    if (x[6] <= -0.4562990069389343) {
                                        votes[0] += 1;
                                    }

                                    else {
                                        votes[0] += 1;
                                    }
                                }

                                else {
                                    if (x[55] <= 0.8546755015850067) {
                                        votes[1] += 1;
                                    }

                                    else {
                                        votes[0] += 1;
                                    }
                                }
                            }
                        }

                        else {
                            if (x[62] <= 1.128051996231079) {
                                if (x[82] <= -201.61468505859375) {
                                    if (x[95] <= -58.82965087890625) {
                                        votes[0] += 1;
                                    }

                                    else {
                                        votes[1] += 1;
                                    }
                                }

                                else {
                                    if (x[96] <= -1.0485230088233948) {
                                        votes[0] += 1;
                                    }

                                    else {
                                        votes[0] += 1;
                                    }
                                }
                            }

                            else {
                                if (x[110] <= -1.3654784560203552) {
                                    if (x[32] <= 0.22387699782848358) {
                                        votes[0] += 1;
                                    }

                                    else {
                                        votes[1] += 1;
                                    }
                                }

                                else {
                                    if (x[74] <= 1.41754150390625) {
                                        votes[0] += 1;
                                    }

                                    else {
                                        votes[1] += 1;
                                    }
                                }
                            }
                        }

                        // tree #15
                        if (x[94] <= -128.2952880859375) {
                            if (x[2] <= 0.20800799876451492) {
                                if (x[1] <= 0.6405029892921448) {
                                    if (x[112] <= -255.648193359375) {
                                        votes[1] += 1;
                                    }

                                    else {
                                        votes[0] += 1;
                                    }
                                }

                                else {
                                    votes[0] += 1;
                                }
                            }

                            else {
                                if (x[41] <= 53.7432861328125) {
                                    if (x[20] <= 0.4703980088233948) {
                                        votes[0] += 1;
                                    }

                                    else {
                                        votes[1] += 1;
                                    }
                                }

                                else {
                                    if (x[4] <= 273.546142578125) {
                                        votes[0] += 1;
                                    }

                                    else {
                                        votes[1] += 1;
                                    }
                                }
                            }
                        }

                        else {
                            if (x[82] <= 201.278076171875) {
                                if (x[46] <= -193.4197998046875) {
                                    if (x[4] <= 252.76123046875) {
                                        votes[0] += 1;
                                    }

                                    else {
                                        votes[1] += 1;
                                    }
                                }

                                else {
                                    if (x[58] <= -214.86053466796875) {
                                        votes[1] += 1;
                                    }

                                    else {
                                        votes[0] += 1;
                                    }
                                }
                            }

                            else {
                                if (x[85] <= 0.8627929985523224) {
                                    if (x[95] <= 91.35406494140625) {
                                        votes[1] += 1;
                                    }

                                    else {
                                        votes[0] += 1;
                                    }
                                }

                                else {
                                    if (x[44] <= 3.039551019668579) {
                                        votes[0] += 1;
                                    }

                                    else {
                                        votes[1] += 1;
                                    }
                                }
                            }
                        }

                        // tree #16
                        if (x[70] <= -184.0191650390625) {
                            if (x[83] <= -65.49652099609375) {
                                if (x[24] <= -0.5313109904527664) {
                                    if (x[53] <= -14.7186279296875) {
                                        votes[0] += 1;
                                    }

                                    else {
                                        votes[1] += 1;
                                    }
                                }

                                else {
                                    if (x[37] <= 0.05517549975775182) {
                                        votes[0] += 1;
                                    }

                                    else {
                                        votes[0] += 1;
                                    }
                                }
                            }

                            else {
                                if (x[13] <= 0.8435669839382172) {
                                    if (x[82] <= 53.2904052734375) {
                                        votes[1] += 1;
                                    }

                                    else {
                                        votes[0] += 1;
                                    }
                                }

                                else {
                                    if (x[2] <= 0.9999999701976776) {
                                        votes[0] += 1;
                                    }

                                    else {
                                        votes[1] += 1;
                                    }
                                }
                            }
                        }

                        else {
                            if (x[58] <= 137.8399658203125) {
                                if (x[90] <= 0.8311769962310791) {
                                    if (x[73] <= 1.8236085176467896) {
                                        votes[0] += 1;
                                    }

                                    else {
                                        votes[0] += 1;
                                    }
                                }

                                else {
                                    if (x[82] <= 180.6707763671875) {
                                        votes[0] += 1;
                                    }

                                    else {
                                        votes[1] += 1;
                                    }
                                }
                            }

                            else {
                                if (x[113] <= -49.33868408203125) {
                                    if (x[86] <= 0.5823364853858948) {
                                        votes[0] += 1;
                                    }

                                    else {
                                        votes[1] += 1;
                                    }
                                }

                                else {
                                    if (x[116] <= 1.0154420137405396) {
                                        votes[1] += 1;
                                    }

                                    else {
                                        votes[1] += 1;
                                    }
                                }
                            }
                        }

                        // tree #17
                        if (x[112] <= -165.5572509765625) {
                            if (x[113] <= -61.2396240234375) {
                                if (x[73] <= 0.40734899044036865) {
                                    if (x[16] <= 79.7491455078125) {
                                        votes[0] += 1;
                                    }

                                    else {
                                        votes[1] += 1;
                                    }
                                }

                                else {
                                    if (x[62] <= -1.9758300185203552) {
                                        votes[1] += 1;
                                    }

                                    else {
                                        votes[0] += 1;
                                    }
                                }
                            }

                            else {
                                if (x[14] <= 0.11792000383138657) {
                                    if (x[103] <= -1.1941530108451843) {
                                        votes[0] += 1;
                                    }

                                    else {
                                        votes[0] += 1;
                                    }
                                }

                                else {
                                    if (x[102] <= 0.14532450586557388) {
                                        votes[0] += 1;
                                    }

                                    else {
                                        votes[1] += 1;
                                    }
                                }
                            }
                        }

                        else {
                            if (x[48] <= 0.9365845024585724) {
                                if (x[66] <= 1.1054080128669739) {
                                    if (x[88] <= 256.96746826171875) {
                                        votes[0] += 1;
                                    }

                                    else {
                                        votes[1] += 1;
                                    }
                                }

                                else {
                                    if (x[76] <= -248.33740234375) {
                                        votes[1] += 1;
                                    }

                                    else {
                                        votes[0] += 1;
                                    }
                                }
                            }

                            else {
                                if (x[38] <= -1.59368896484375) {
                                    if (x[11] <= 65.68206787109375) {
                                        votes[1] += 1;
                                    }

                                    else {
                                        votes[0] += 1;
                                    }
                                }

                                else {
                                    if (x[64] <= -216.9488525390625) {
                                        votes[1] += 1;
                                    }

                                    else {
                                        votes[0] += 1;
                                    }
                                }
                            }
                        }

                        // tree #18
                        if (x[100] <= -169.34967041015625) {
                            if (x[107] <= -62.2015380859375) {
                                if (x[67] <= 0.4005129933357239) {
                                    if (x[86] <= 0.9577639698982239) {
                                        votes[0] += 1;
                                    }

                                    else {
                                        votes[1] += 1;
                                    }
                                }

                                else {
                                    if (x[2] <= 3.1478885412216187) {
                                        votes[0] += 1;
                                    }

                                    else {
                                        votes[1] += 1;
                                    }
                                }
                            }

                            else {
                                if (x[116] <= 0.7200930118560791) {
                                    if (x[56] <= 0.6628420054912567) {
                                        votes[0] += 1;
                                    }

                                    else {
                                        votes[0] += 1;
                                    }
                                }

                                else {
                                    if (x[97] <= 2.097534418106079) {
                                        votes[1] += 1;
                                    }

                                    else {
                                        votes[0] += 1;
                                    }
                                }
                            }
                        }

                        else {
                            if (x[62] <= 1.2088624835014343) {
                                if (x[38] <= 2.149596929550171) {
                                    if (x[4] <= 195.26519775390625) {
                                        votes[0] += 1;
                                    }

                                    else {
                                        votes[0] += 1;
                                    }
                                }

                                else {
                                    if (x[92] <= 0.0531615000218153) {
                                        votes[1] += 1;
                                    }

                                    else {
                                        votes[0] += 1;
                                    }
                                }
                            }

                            else {
                                if (x[82] <= 227.59765625) {
                                    if (x[91] <= 0.9128420054912567) {
                                        votes[0] += 1;
                                    }

                                    else {
                                        votes[1] += 1;
                                    }
                                }

                                else {
                                    if (x[79] <= 0.9100954830646515) {
                                        votes[1] += 1;
                                    }

                                    else {
                                        votes[0] += 1;
                                    }
                                }
                            }
                        }

                        // tree #19
                        if (x[76] <= -201.92108154296875) {
                            if (x[71] <= -71.1151123046875) {
                                if (x[61] <= -0.13958749920129776) {
                                    if (x[9] <= 144.50225830078125) {
                                        votes[1] += 1;
                                    }

                                    else {
                                        votes[0] += 1;
                                    }
                                }

                                else {
                                    if (x[62] <= 0.9167479872703552) {
                                        votes[0] += 1;
                                    }

                                    else {
                                        votes[1] += 1;
                                    }
                                }
                            }

                            else {
                                if (x[89] <= -89.7003173828125) {
                                    if (x[44] <= -2.67529296875) {
                                        votes[1] += 1;
                                    }

                                    else {
                                        votes[0] += 1;
                                    }
                                }

                                else {
                                    if (x[77] <= 269.3206787109375) {
                                        votes[1] += 1;
                                    }

                                    else {
                                        votes[0] += 1;
                                    }
                                }
                            }
                        }

                        else {
                            if (x[106] <= -204.88494873046875) {
                                if (x[58] <= 169.630126953125) {
                                    if (x[73] <= 0.78387451171875) {
                                        votes[0] += 1;
                                    }

                                    else {
                                        votes[0] += 1;
                                    }
                                }

                                else {
                                    if (x[110] <= 0.3477174937725067) {
                                        votes[0] += 1;
                                    }

                                    else {
                                        votes[1] += 1;
                                    }
                                }
                            }

                            else {
                                if (x[94] <= 140.5096435546875) {
                                    if (x[112] <= -179.7991943359375) {
                                        votes[0] += 1;
                                    }

                                    else {
                                        votes[0] += 1;
                                    }
                                }

                                else {
                                    if (x[110] <= -1.2266234755516052) {
                                        votes[1] += 1;
                                    }

                                    else {
                                        votes[0] += 1;
                                    }
                                }
                            }
                        }

                        // tree #20
                        if (x[118] <= -164.3609619140625) {
                            if (x[67] <= 0.9308469891548157) {
                                if (x[113] <= -100.42694091796875) {
                                    if (x[50] <= 2.785888433456421) {
                                        votes[0] += 1;
                                    }

                                    else {
                                        votes[1] += 1;
                                    }
                                }

                                else {
                                    if (x[40] <= 99.0618896484375) {
                                        votes[1] += 1;
                                    }

                                    else {
                                        votes[1] += 1;
                                    }
                                }
                            }

                            else {
                                if (x[53] <= -53.2806396484375) {
                                    if (x[53] <= -246.7962646484375) {
                                        votes[0] += 1;
                                    }

                                    else {
                                        votes[0] += 1;
                                    }
                                }

                                else {
                                    if (x[113] <= 77.177734375) {
                                        votes[0] += 1;
                                    }

                                    else {
                                        votes[0] += 1;
                                    }
                                }
                            }
                        }

                        else {
                            if (x[76] <= -169.23095703125) {
                                if (x[49] <= 0.9282225072383881) {
                                    if (x[16] <= 120.9637451171875) {
                                        votes[0] += 1;
                                    }

                                    else {
                                        votes[1] += 1;
                                    }
                                }

                                else {
                                    if (x[56] <= 0.7335815131664276) {
                                        votes[0] += 1;
                                    }

                                    else {
                                        votes[1] += 1;
                                    }
                                }
                            }

                            else {
                                if (x[80] <= 1.2301635146141052) {
                                    if (x[79] <= 0.20343000441789627) {
                                        votes[0] += 1;
                                    }

                                    else {
                                        votes[0] += 1;
                                    }
                                }

                                else {
                                    if (x[50] <= 1.0026854872703552) {
                                        votes[0] += 1;
                                    }

                                    else {
                                        votes[1] += 1;
                                    }
                                }
                            }
                        }

                        // tree #21
                        if (x[100] <= -171.0711669921875) {
                            if (x[110] <= 0.7882689833641052) {
                                if (x[95] <= 90.18585205078125) {
                                    if (x[8] <= 3.3544315099716187) {
                                        votes[0] += 1;
                                    }

                                    else {
                                        votes[1] += 1;
                                    }
                                }

                                else {
                                    if (x[115] <= 0.3811035007238388) {
                                        votes[1] += 1;
                                    }

                                    else {
                                        votes[0] += 1;
                                    }
                                }
                            }

                            else {
                                if (x[2] <= 0.16058349609375) {
                                    if (x[62] <= 0.7677610218524933) {
                                        votes[0] += 1;
                                    }

                                    else {
                                        votes[0] += 1;
                                    }
                                }

                                else {
                                    if (x[101] <= -66.44256591796875) {
                                        votes[0] += 1;
                                    }

                                    else {
                                        votes[1] += 1;
                                    }
                                }
                            }
                        }

                        else {
                            if (x[56] <= 1.2062985301017761) {
                                if (x[64] <= -206.80755615234375) {
                                    if (x[98] <= 1.45574951171875) {
                                        votes[0] += 1;
                                    }

                                    else {
                                        votes[1] += 1;
                                    }
                                }

                                else {
                                    if (x[98] <= -1.3885495066642761) {
                                        votes[0] += 1;
                                    }

                                    else {
                                        votes[0] += 1;
                                    }
                                }
                            }

                            else {
                                if (x[74] <= 0.8564450144767761) {
                                    if (x[58] <= 193.52020263671875) {
                                        votes[0] += 1;
                                    }

                                    else {
                                        votes[1] += 1;
                                    }
                                }

                                else {
                                    if (x[58] <= 122.93975830078125) {
                                        votes[1] += 1;
                                    }

                                    else {
                                        votes[1] += 1;
                                    }
                                }
                            }
                        }

                        // tree #22
                        if (x[70] <= -169.32830810546875) {
                            if (x[2] <= 0.32104499638080597) {
                                if (x[69] <= -9.6368408203125) {
                                    if (x[62] <= 0.9736934900283813) {
                                        votes[0] += 1;
                                    }

                                    else {
                                        votes[1] += 1;
                                    }
                                }

                                else {
                                    if (x[65] <= -71.6162109375) {
                                        votes[0] += 1;
                                    }

                                    else {
                                        votes[1] += 1;
                                    }
                                }
                            }

                            else {
                                if (x[5] <= 80.5145263671875) {
                                    if (x[67] <= 1.308655023574829) {
                                        votes[1] += 1;
                                    }

                                    else {
                                        votes[0] += 1;
                                    }
                                }

                                else {
                                    if (x[70] <= -173.90472412109375) {
                                        votes[0] += 1;
                                    }

                                    else {
                                        votes[1] += 1;
                                    }
                                }
                            }
                        }

                        else {
                            if (x[82] <= 180.6707763671875) {
                                if (x[106] <= -202.35565185546875) {
                                    if (x[119] <= -75.5718994140625) {
                                        votes[0] += 1;
                                    }

                                    else {
                                        votes[1] += 1;
                                    }
                                }

                                else {
                                    if (x[46] <= -275.21575927734375) {
                                        votes[0] += 1;
                                    }

                                    else {
                                        votes[0] += 1;
                                    }
                                }
                            }

                            else {
                                if (x[103] <= 0.8558349907398224) {
                                    if (x[23] <= -94.84222412109375) {
                                        votes[0] += 1;
                                    }

                                    else {
                                        votes[1] += 1;
                                    }
                                }

                                else {
                                    if (x[90] <= 1.5817870497703552) {
                                        votes[0] += 1;
                                    }

                                    else {
                                        votes[1] += 1;
                                    }
                                }
                            }
                        }

                        // tree #23
                        if (x[76] <= -166.441650390625) {
                            if (x[16] <= 102.70538330078125) {
                                if (x[61] <= 0.2707519978284836) {
                                    if (x[55] <= -0.3419190049171448) {
                                        votes[0] += 1;
                                    }

                                    else {
                                        votes[1] += 1;
                                    }
                                }

                                else {
                                    if (x[10] <= 104.57733154296875) {
                                        votes[0] += 1;
                                    }

                                    else {
                                        votes[0] += 1;
                                    }
                                }
                            }

                            else {
                                if (x[77] <= -56.082763671875) {
                                    if (x[23] <= -75.7049560546875) {
                                        votes[1] += 1;
                                    }

                                    else {
                                        votes[0] += 1;
                                    }
                                }

                                else {
                                    if (x[77] <= 270.1141357421875) {
                                        votes[1] += 1;
                                    }

                                    else {
                                        votes[0] += 1;
                                    }
                                }
                            }
                        }

                        else {
                            if (x[106] <= -202.42706298828125) {
                                if (x[107] <= -59.89776611328125) {
                                    if (x[101] <= -47.59918212890625) {
                                        votes[0] += 1;
                                    }

                                    else {
                                        votes[0] += 1;
                                    }
                                }

                                else {
                                    if (x[61] <= 0.9343259930610657) {
                                        votes[1] += 1;
                                    }

                                    else {
                                        votes[0] += 1;
                                    }
                                }
                            }

                            else {
                                if (x[84] <= 0.7512814998626709) {
                                    if (x[68] <= 1.7448729872703552) {
                                        votes[0] += 1;
                                    }

                                    else {
                                        votes[0] += 1;
                                    }
                                }

                                else {
                                    if (x[56] <= 1.1109009981155396) {
                                        votes[0] += 1;
                                    }

                                    else {
                                        votes[1] += 1;
                                    }
                                }
                            }
                        }

                        // tree #24
                        if (x[66] <= 0.7763059735298157) {
                            if (x[56] <= 1.2087405323982239) {
                                if (x[106] <= -216.456298828125) {
                                    if (x[61] <= 0.44903549551963806) {
                                        votes[1] += 1;
                                    }

                                    else {
                                        votes[0] += 1;
                                    }
                                }

                                else {
                                    if (x[94] <= -202.36480712890625) {
                                        votes[0] += 1;
                                    }

                                    else {
                                        votes[0] += 1;
                                    }
                                }
                            }

                            else {
                                if (x[82] <= 184.0216064453125) {
                                    if (x[70] <= -114.19952392578125) {
                                        votes[1] += 1;
                                    }

                                    else {
                                        votes[0] += 1;
                                    }
                                }

                                else {
                                    if (x[79] <= 1.101012945175171) {
                                        votes[1] += 1;
                                    }

                                    else {
                                        votes[0] += 1;
                                    }
                                }
                            }
                        }

                        else {
                            if (x[112] <= -119.55413818359375) {
                                if (x[46] <= -67.11456298828125) {
                                    if (x[36] <= -0.8334960043430328) {
                                        votes[1] += 1;
                                    }

                                    else {
                                        votes[0] += 1;
                                    }
                                }

                                else {
                                    if (x[20] <= 0.12121600285172462) {
                                        votes[0] += 1;
                                    }

                                    else {
                                        votes[1] += 1;
                                    }
                                }
                            }

                            else {
                                if (x[19] <= 0.9368284940719604) {
                                    if (x[82] <= -178.57421875) {
                                        votes[1] += 1;
                                    }

                                    else {
                                        votes[0] += 1;
                                    }
                                }

                                else {
                                    if (x[62] <= -1.5625) {
                                        votes[1] += 1;
                                    }

                                    else {
                                        votes[0] += 1;
                                    }
                                }
                            }
                        }

                        // tree #25
                        if (x[76] <= -185.15289306640625) {
                            if (x[61] <= 0.9446409940719604) {
                                if (x[86] <= 1.008239984512329) {
                                    if (x[83] <= -51.23382568359375) {
                                        votes[0] += 1;
                                    }

                                    else {
                                        votes[1] += 1;
                                    }
                                }

                                else {
                                    if (x[11] <= 62.90496826171875) {
                                        votes[1] += 1;
                                    }

                                    else {
                                        votes[0] += 1;
                                    }
                                }
                            }

                            else {
                                if (x[50] <= -2.27691650390625) {
                                    if (x[2] <= 0.8372189998626709) {
                                        votes[0] += 1;
                                    }

                                    else {
                                        votes[1] += 1;
                                    }
                                }

                                else {
                                    if (x[62] <= 1.2042235136032104) {
                                        votes[0] += 1;
                                    }

                                    else {
                                        votes[1] += 1;
                                    }
                                }
                            }
                        }

                        else {
                            if (x[106] <= -198.4490966796875) {
                                if (x[96] <= 0.26501500606536865) {
                                    if (x[55] <= 0.59722900390625) {
                                        votes[0] += 1;
                                    }

                                    else {
                                        votes[0] += 1;
                                    }
                                }

                                else {
                                    if (x[38] <= 0.6607665121555328) {
                                        votes[0] += 1;
                                    }

                                    else {
                                        votes[1] += 1;
                                    }
                                }
                            }

                            else {
                                if (x[68] <= 1.2327879667282104) {
                                    if (x[94] <= 86.9818115234375) {
                                        votes[0] += 1;
                                    }

                                    else {
                                        votes[0] += 1;
                                    }
                                }

                                else {
                                    if (x[116] <= -1.3576659560203552) {
                                        votes[1] += 1;
                                    }

                                    else {
                                        votes[0] += 1;
                                    }
                                }
                            }
                        }

                        // tree #26
                        if (x[94] <= -169.34967041015625) {
                            if (x[86] <= 0.6841430068016052) {
                                if (x[67] <= 0.6268920004367828) {
                                    if (x[118] <= -159.3023681640625) {
                                        votes[1] += 1;
                                    }

                                    else {
                                        votes[0] += 1;
                                    }
                                }

                                else {
                                    if (x[26] <= 1.8452755212783813) {
                                        votes[0] += 1;
                                    }

                                    else {
                                        votes[0] += 1;
                                    }
                                }
                            }

                            else {
                                if (x[4] <= -134.7052001953125) {
                                    if (x[70] <= 19.7442626953125) {
                                        votes[0] += 1;
                                    }

                                    else {
                                        votes[1] += 1;
                                    }
                                }

                                else {
                                    if (x[89] <= -55.5328369140625) {
                                        votes[0] += 1;
                                    }

                                    else {
                                        votes[1] += 1;
                                    }
                                }
                            }
                        }

                        else {
                            if (x[56] <= 1.0591430068016052) {
                                if (x[70] <= -205.1422119140625) {
                                    if (x[31] <= 0.6277465224266052) {
                                        votes[1] += 1;
                                    }

                                    else {
                                        votes[0] += 1;
                                    }
                                }

                                else {
                                    if (x[70] <= 194.6331787109375) {
                                        votes[0] += 1;
                                    }

                                    else {
                                        votes[0] += 1;
                                    }
                                }
                            }

                            else {
                                if (x[78] <= 0.6417845189571381) {
                                    if (x[92] <= 1.2286375164985657) {
                                        votes[0] += 1;
                                    }

                                    else {
                                        votes[1] += 1;
                                    }
                                }

                                else {
                                    if (x[76] <= 204.24652099609375) {
                                        votes[0] += 1;
                                    }

                                    else {
                                        votes[1] += 1;
                                    }
                                }
                            }
                        }

                        // tree #27
                        if (x[82] <= -161.58416748046875) {
                            if (x[37] <= 0.9611205160617828) {
                                if (x[23] <= 83.50433349609375) {
                                    if (x[77] <= -102.0416259765625) {
                                        votes[0] += 1;
                                    }

                                    else {
                                        votes[1] += 1;
                                    }
                                }

                                else {
                                    if (x[74] <= 1.858093500137329) {
                                        votes[0] += 1;
                                    }

                                    else {
                                        votes[1] += 1;
                                    }
                                }
                            }

                            else {
                                if (x[94] <= -268.2427978515625) {
                                    if (x[7] <= 2.1342769861221313) {
                                        votes[0] += 1;
                                    }

                                    else {
                                        votes[1] += 1;
                                    }
                                }

                                else {
                                    if (x[74] <= 1.7915650010108948) {
                                        votes[0] += 1;
                                    }

                                    else {
                                        votes[0] += 1;
                                    }
                                }
                            }
                        }

                        else {
                            if (x[116] <= -1.2647705078125) {
                                if (x[101] <= 39.98626708984375) {
                                    if (x[32] <= -0.0518800001591444) {
                                        votes[0] += 1;
                                    }

                                    else {
                                        votes[1] += 1;
                                    }
                                }

                                else {
                                    if (x[116] <= -1.3267825245857239) {
                                        votes[0] += 1;
                                    }

                                    else {
                                        votes[0] += 1;
                                    }
                                }
                            }

                            else {
                                if (x[98] <= -1.2117310166358948) {
                                    if (x[89] <= 31.531982421875) {
                                        votes[1] += 1;
                                    }

                                    else {
                                        votes[0] += 1;
                                    }
                                }

                                else {
                                    if (x[46] <= 210.4180908203125) {
                                        votes[0] += 1;
                                    }

                                    else {
                                        votes[1] += 1;
                                    }
                                }
                            }
                        }

                        // tree #28
                        if (x[70] <= -164.3609619140625) {
                            if (x[25] <= 0.9308469891548157) {
                                if (x[88] <= -161.4764404296875) {
                                    if (x[83] <= -107.3822021484375) {
                                        votes[0] += 1;
                                    }

                                    else {
                                        votes[1] += 1;
                                    }
                                }

                                else {
                                    if (x[101] <= -172.52593994140625) {
                                        votes[0] += 1;
                                    }

                                    else {
                                        votes[1] += 1;
                                    }
                                }
                            }

                            else {
                                if (x[31] <= 0.9160155057907104) {
                                    if (x[116] <= 1.08856201171875) {
                                        votes[0] += 1;
                                    }

                                    else {
                                        votes[1] += 1;
                                    }
                                }

                                else {
                                    if (x[49] <= -0.7962034940719604) {
                                        votes[0] += 1;
                                    }

                                    else {
                                        votes[0] += 1;
                                    }
                                }
                            }
                        }

                        else {
                            if (x[58] <= 138.41064453125) {
                                if (x[94] <= 206.35223388671875) {
                                    if (x[79] <= 1.4653319716453552) {
                                        votes[0] += 1;
                                    }

                                    else {
                                        votes[0] += 1;
                                    }
                                }

                                else {
                                    if (x[97] <= 0.8477174937725067) {
                                        votes[1] += 1;
                                    }

                                    else {
                                        votes[0] += 1;
                                    }
                                }
                            }

                            else {
                                if (x[11] <= -185.8929443359375) {
