#pragma once
#include <cstdarg>
namespace Eloquent {
    namespace ML {
        namespace Port {
            class XGBClassifier {
                public:
                    /**
                    * Predict class for features vector
                    */
                    int predict(float *x) {
                        float votes[3] = { 0.0f };
                        // tree #1
                        if (x[82] <= -169.24042) {
                            if (x[83] <= -73.11249) {
                                if (x[68] <= 1.258362) {
                                    if (x[78] <= -0.22100851) {
                                        if (x[13] <= 0.151489) {
                                            votes[0] += -0.12857145;
                                        }

                                        else {
                                            votes[0] += 0.25714284;
                                        }
                                    }

                                    else {
                                        if (x[37] <= -1.619873) {
                                            votes[0] += 0.12857142;
                                        }

                                        else {
                                            votes[0] += 0.4400978;
                                        }
                                    }
                                }

                                else {
                                    if (x[11] <= 6.692505) {
                                        votes[0] += -0.15517244;
                                    }

                                    else {
                                        votes[0] += 0.12857142;
                                    }
                                }
                            }

                            else {
                                if (x[22] <= -31.46637) {
                                    if (x[74] <= 0.8339235) {
                                        if (x[1] <= 2.8953855) {
                                            votes[0] += 0.41860464;
                                        }

                                        else {
                                            votes[0] += 0.12857142;
                                        }
                                    }

                                    else {
                                        if (x[0] <= 0.277832) {
                                            votes[0] += -7.663455e-09;
                                        }

                                        else {
                                            votes[0] += -0.14400001;
                                        }
                                    }
                                }

                                else {
                                    if (x[79] <= 1.763306) {
                                        if (x[106] <= 175.66864) {
                                            if (x[89] <= 323.64197) {
                                                votes[0] += -0.17592685;
                                            }

                                            else {
                                                votes[0] += 0.34054056;
                                            }
                                        }

                                        else {
                                            if (x[13] <= 0.8204345) {
                                                votes[0] += -0.08181819;
                                            }

                                            else {
                                                votes[0] += 0.36734694;
                                            }
                                        }
                                    }

                                    else {
                                        if (x[80] <= 2.1148682) {
                                            votes[0] += 0.40645164;
                                        }

                                        else {
                                            if (x[107] <= -97.81799) {
                                                votes[0] += 0.28800002;
                                            }

                                            else {
                                                votes[0] += -0.18679248;
                                            }
                                        }
                                    }
                                }
                            }
                        }

                        else {
                            if (x[70] <= 140.85358) {
                                if (x[68] <= 1.4870605) {
                                    if (x[74] <= -1.2409055) {
                                        if (x[98] <= 0.13763401) {
                                            votes[0] += 0.21724138;
                                        }

                                        else {
                                            votes[0] += -0.20707966;
                                        }
                                    }

                                    else {
                                        if (x[52] <= -210.68298) {
                                            if (x[108] <= -0.128601) {
                                                votes[0] += -0.1523077;
                                            }

                                            else {
                                                votes[0] += 0.32561797;
                                            }
                                        }

                                        else {
                                            if (x[26] <= 3.5975955) {
                                                votes[0] += 0.4361108;
                                            }

                                            else {
                                                votes[0] += 0.16981132;
                                            }
                                        }
                                    }
                                }

                                else {
                                    if (x[86] <= 0.9520875) {
                                        if (x[2] <= -3.984009) {
                                            if (x[56] <= 2.9990234) {
                                                votes[0] += -0.15517244;
                                            }

                                            else {
                                                votes[0] += 0.25714284;
                                            }
                                        }

                                        else {
                                            if (x[66] <= -0.0143435) {
                                                votes[0] += 0.23076923;
                                            }

                                            else {
                                                votes[0] += 0.398941;
                                            }
                                        }
                                    }

                                    else {
                                        if (x[56] <= 0.831787) {
                                            if (x[44] <= -1.5275874) {
                                                votes[0] += -9.753488e-09;
                                            }

                                            else {
                                                votes[0] += 0.37146816;
                                            }
                                        }

                                        else {
                                            if (x[98] <= 1.417419) {
                                                votes[0] += 0.065019004;
                                            }

                                            else {
                                                votes[0] += -0.14220376;
                                            }
                                        }
                                    }
                                }
                            }

                            else {
                                if (x[71] <= 38.302612) {
                                    if (x[5] <= -93.591) {
                                        if (x[14] <= 2.3619385) {
                                            if (x[0] <= -0.68536353) {
                                                votes[0] += 0.12857142;
                                            }

                                            else {
                                                votes[0] += 0.42603552;
                                            }
                                        }

                                        else {
                                            votes[0] += -0.03600001;
                                        }
                                    }

                                    else {
                                        if (x[17] <= 162.20856) {
                                            if (x[8] <= -0.1915285) {
                                                votes[0] += 0.25714287;
                                            }

                                            else {
                                                votes[0] += -0.1397336;
                                            }
                                        }

                                        else {
                                            if (x[2] <= 1.6508789) {
                                                votes[0] += 0.40344828;
                                            }

                                            else {
                                                votes[0] += -0.09729732;
                                            }
                                        }
                                    }
                                }

                                else {
                                    if (x[110] <= -1.0650635) {
                                        if (x[109] <= 0.7354735) {
                                            votes[0] += -0.19384618;
                                        }

                                        else {
                                            votes[0] += 0.32727274;
                                        }
                                    }

                                    else {
                                        if (x[92] <= -3.4035645) {
                                            votes[0] += -0.12857145;
                                        }

                                        else {
                                            if (x[2] <= 2.9054565) {
                                                votes[0] += 0.4311628;
                                            }

                                            else {
                                                votes[0] += -7.663455e-09;
                                            }
                                        }
                                    }
                                }
                            }
                        }

                        // tree #2
                        if (x[82] <= -169.24042) {
                            if (x[83] <= -73.11249) {
                                if (x[68] <= 1.258362) {
                                    if (x[78] <= -0.22100851) {
                                        if (x[13] <= 0.151489) {
                                            votes[1] += 0.25714284;
                                        }

                                        else {
                                            votes[1] += -0.12857145;
                                        }
                                    }

                                    else {
                                        if (x[37] <= -1.619873) {
                                            votes[1] += -7.663455e-09;
                                        }

                                        else {
                                            votes[1] += -0.22004892;
                                        }
                                    }
                                }

                                else {
                                    if (x[11] <= 6.692505) {
                                        votes[1] += 0.31034482;
                                    }

                                    else {
                                        votes[1] += -7.663455e-09;
                                    }
                                }
                            }

                            else {
                                if (x[107] <= -130.21118) {
                                    if (x[2] <= 2.2593994) {
                                        votes[1] += -0.20642205;
                                    }

                                    else {
                                        votes[1] += -7.663455e-09;
                                    }
                                }

                                else {
                                    if (x[31] <= 1.5462035) {
                                        if (x[16] <= -100.16266) {
                                            if (x[6] <= -0.42498803) {
                                                votes[1] += 0.12857142;
                                            }

                                            else {
                                                votes[1] += -0.1894737;
                                            }
                                        }

                                        else {
                                            if (x[82] <= -477.75543) {
                                                votes[1] += -0.13584907;
                                            }

                                            else {
                                                votes[1] += 0.39141163;
                                            }
                                        }
                                    }

                                    else {
                                        votes[1] += -0.19870132;
                                    }
                                }
                            }
                        }

                        else {
                            if (x[70] <= 140.85358) {
                                if (x[68] <= 1.4870605) {
                                    if (x[74] <= -1.2409055) {
                                        if (x[98] <= 0.13763401) {
                                            votes[1] += -0.06206898;
                                        }

                                        else {
                                            votes[1] += 0.4141593;
                                        }
                                    }

                                    else {
                                        if (x[52] <= -210.68298) {
                                            if (x[108] <= -0.128601) {
                                                votes[1] += 0.34615386;
                                            }

                                            else {
                                                votes[1] += -0.10516856;
                                            }
                                        }

                                        else {
                                            if (x[94] <= 258.5727) {
                                                votes[1] += -0.21372785;
                                            }

                                            else {
                                                votes[1] += -0.11775703;
                                            }
                                        }
                                    }
                                }

                                else {
                                    if (x[86] <= 0.9520875) {
                                        if (x[2] <= -3.984009) {
                                            if (x[56] <= 2.9990234) {
                                                votes[1] += 0.31034482;
                                            }

                                            else {
                                                votes[1] += -0.12857145;
                                            }
                                        }

                                        else {
                                            if (x[66] <= -0.0143435) {
                                                votes[1] += -0.023076937;
                                            }

                                            else {
                                                votes[1] += -0.17700456;
                                            }
                                        }
                                    }

                                    else {
                                        if (x[56] <= 0.831787) {
                                            if (x[44] <= -1.5275874) {
                                                votes[1] += 0.16363636;
                                            }

                                            else {
                                                votes[1] += -0.15207759;
                                            }
                                        }

                                        else {
                                            if (x[92] <= 1.3637695) {
                                                votes[1] += 0.12265486;
                                            }

                                            else {
                                                votes[1] += 0.32553193;
                                            }
                                        }
                                    }
                                }
                            }

                            else {
                                if (x[71] <= 42.300415) {
                                    if (x[5] <= -93.591) {
                                        if (x[14] <= 2.3619385) {
                                            if (x[0] <= -0.68536353) {
                                                votes[1] += -7.663455e-09;
                                            }

                                            else {
                                                votes[1] += -0.21329483;
                                            }
                                        }

                                        else {
                                            votes[1] += 0.17999999;
                                        }
                                    }

                                    else {
                                        if (x[17] <= 169.52393) {
                                            if (x[8] <= -0.1915285) {
                                                votes[1] += -0.05255476;
                                            }

                                            else {
                                                votes[1] += 0.36138526;
                                            }
                                        }

                                        else {
                                            if (x[2] <= 1.6508789) {
                                                votes[1] += -0.210219;
                                            }

                                            else {
                                                votes[1] += 0.24545455;
                                            }
                                        }
                                    }
                                }

                                else {
                                    if (x[110] <= -1.0650635) {
                                        if (x[109] <= 0.7354735) {
                                            votes[1] += 0.37894738;
                                        }

                                        else {
                                            votes[1] += -0.16363637;
                                        }
                                    }

                                    else {
                                        if (x[92] <= -3.4035645) {
                                            votes[1] += 0.25714284;
                                        }

                                        else {
                                            if (x[102] <= -0.70037854) {
                                                votes[1] += -9.753488e-09;
                                            }

                                            else {
                                                votes[1] += -0.21729204;
                                            }
                                        }
                                    }
                                }
                            }
                        }

                        // tree #3
                        if (x[3] <= 517.39594) {
                            votes[2] += -0.22488269;
                        }

                        else {
                            votes[2] += -7.663455e-09;
                        }

                        // tree #4
                        if (x[88] <= -197.9303) {
                            if (x[89] <= -62.45453) {
                                if (x[44] <= -2.7819824) {
                                    votes[0] += -0.15106145;
                                }

                                else {
                                    if (x[73] <= -0.246094) {
                                        votes[0] += -0.03623845;
                                    }

                                    else {
                                        if (x[54] <= -0.3565065) {
                                            if (x[7] <= 0.414978) {
                                                votes[0] += -0.0074590384;
                                            }

                                            else {
                                                votes[0] += 0.1975963;
                                            }
                                        }

                                        else {
                                            if (x[98] <= 3.8312986) {
                                                votes[0] += 0.31191543;
                                            }

                                            else {
                                                votes[0] += 0.093538;
                                            }
                                        }
                                    }
                                }
                            }

                            else {
                                if (x[113] <= -90.597534) {
                                    if (x[91] <= 0.2785645) {
                                        votes[0] += -0.13756147;
                                    }

                                    else {
                                        if (x[64] <= -351.03027) {
                                            votes[0] += -0.11109658;
                                        }

                                        else {
                                            if (x[101] <= 131.01929) {
                                                votes[0] += 0.31363636;
                                            }

                                            else {
                                                votes[0] += 0.094665185;
                                            }
                                        }
                                    }
                                }

                                else {
                                    if (x[37] <= 0.9789425) {
                                        if (x[98] <= 0.4334105) {
                                            if (x[4] <= -109.89624) {
                                                votes[0] += 0.30811983;
                                            }

                                            else {
                                                votes[0] += -0.12983206;
                                            }
                                        }

                                        else {
                                            if (x[5] <= 76.16211) {
                                                votes[0] += -0.18611489;
                                            }

                                            else {
                                                votes[0] += -0.021698786;
                                            }
                                        }
                                    }

                                    else {
                                        if (x[104] <= 1.7285764) {
                                            votes[0] += 0.32147416;
                                        }

                                        else {
                                            if (x[90] <= 2.292969) {
                                                votes[0] += -0.17778225;
                                            }

                                            else {
                                                votes[0] += 0.22596516;
                                            }
                                        }
                                    }
                                }
                            }
                        }

                        else {
                            if (x[62] <= 1.0875854) {
                                if (x[80] <= -1.8375854) {
                                    if (x[79] <= 0.4264525) {
                                        if (x[112] <= -398.3789) {
                                            votes[0] += 0.027532868;
                                        }

                                        else {
                                            votes[0] += -0.20002218;
                                        }
                                    }

                                    else {
                                        if (x[28] <= 102.266235) {
                                            votes[0] += 0.2686302;
                                        }

                                        else {
                                            votes[0] += -0.114100665;
                                        }
                                    }
                                }

                                else {
                                    if (x[92] <= -1.88678) {
                                        if (x[70] <= 148.08594) {
                                            votes[0] += 0.28524336;
                                        }

                                        else {
                                            if (x[75] <= -74.68414) {
                                                votes[0] += 0.251642;
                                            }

                                            else {
                                                votes[0] += -0.19562717;
                                            }
                                        }
                                    }

                                    else {
                                        if (x[108] <= -1.2849729) {
                                            if (x[100] <= 90.07965) {
                                                votes[0] += 0.24792334;
                                            }

                                            else {
                                                votes[0] += -0.19510955;
                                            }
                                        }

                                        else {
                                            if (x[104] <= -3.3792725) {
                                                votes[0] += -0.09241517;
                                            }

                                            else {
                                                votes[0] += 0.29022822;
                                            }
                                        }
                                    }
                                }
                            }

                            else {
                                if (x[64] <= 169.40979) {
                                    if (x[80] <= 1.401672) {
                                        if (x[116] <= -1.942322) {
                                            if (x[80] <= 0.852661) {
                                                votes[0] += 0.24456072;
                                            }

                                            else {
                                                votes[0] += -0.16241096;
                                            }
                                        }

                                        else {
                                            if (x[70] <= -165.81299) {
                                                votes[0] += -0.057594974;
                                            }

                                            else {
                                                votes[0] += 0.28520757;
                                            }
                                        }
                                    }

                                    else {
                                        if (x[117] <= 120.17975) {
                                            if (x[113] <= 74.83673) {
                                                votes[0] += -0.06366762;
                                            }

                                            else {
                                                votes[0] += 0.29784602;
                                            }
                                        }

                                        else {
                                            if (x[22] <= -67.673035) {
                                                votes[0] += -0.12864515;
                                            }

                                            else {
                                                votes[0] += 0.3227112;
                                            }
                                        }
                                    }
                                }

                                else {
                                    if (x[17] <= -66.275024) {
                                        if (x[26] <= 2.9021604) {
                                            if (x[1] <= 0.277466) {
                                                votes[0] += 0.09450468;
                                            }

                                            else {
                                                votes[0] += 0.31068948;
                                            }
                                        }

                                        else {
                                            votes[0] += -0.114100665;
                                        }
                                    }

                                    else {
                                        if (x[66] <= 2.2911375) {
                                            if (x[91] <= 0.77417004) {
                                                votes[0] += -0.18390279;
                                            }

                                            else {
                                                votes[0] += 0.13788073;
                                            }
                                        }

                                        else {
                                            if (x[27] <= 83.21442) {
                                                votes[0] += 0.2736884;
                                            }

                                            else {
                                                votes[0] += -0.015842907;
                                            }
                                        }
                                    }
                                }
                            }
                        }

                        // tree #5
                        if (x[88] <= -122.91443) {
                            if (x[89] <= -62.45453) {
                                if (x[44] <= -2.7819824) {
                                    votes[1] += 0.2500518;
                                }

                                else {
                                    if (x[73] <= -0.246094) {
                                        votes[1] += 0.16923457;
                                    }

                                    else {
                                        if (x[110] <= 2.813416) {
                                            if (x[66] <= -0.73315454) {
                                                votes[1] += 0.0074480535;
                                            }

                                            else {
                                                votes[1] += -0.20438917;
                                            }
                                        }

                                        else {
                                            if (x[2] <= 1.3030396) {
                                                votes[1] += -0.13203613;
                                            }

                                            else {
                                                votes[1] += 0.10051269;
                                            }
                                        }
                                    }
                                }
                            }

                            else {
                                if (x[8] <= 0.34948748) {
                                    if (x[70] <= -201.7511) {
                                        if (x[25] <= 0.5979005) {
                                            votes[1] += 0.29057896;
                                        }

                                        else {
                                            votes[1] += -0.15906635;
                                        }
                                    }

                                    else {
                                        if (x[56] <= -1.3745115) {
                                            votes[1] += 0.09708438;
                                        }

                                        else {
                                            if (x[68] <= 1.1578981) {
                                                votes[1] += -0.19970095;
                                            }

                                            else {
                                                votes[1] += -0.04064779;
                                            }
                                        }
                                    }
                                }

                                else {
                                    if (x[94] <= -477.75543) {
                                        if (x[80] <= -2.4423215) {
                                            votes[1] += 0.101449616;
                                        }

                                        else {
                                            votes[1] += -0.19451167;
                                        }
                                    }

                                    else {
                                        if (x[79] <= 1.763306) {
                                            if (x[11] <= 160.6955) {
                                                votes[1] += 0.27705383;
                                            }

                                            else {
                                                votes[1] += -0.1066241;
                                            }
                                        }

                                        else {
                                            if (x[44] <= -0.3998415) {
                                                votes[1] += -0.19008559;
                                            }

                                            else {
                                                votes[1] += 0.1634733;
                                            }
                                        }
                                    }
                                }
                            }
                        }

                        else {
                            if (x[62] <= 1.0875854) {
                                if (x[64] <= 210.39764) {
                                    if (x[108] <= -1.069397) {
                                        if (x[40] <= -170.47363) {
                                            if (x[9] <= -25.90271) {
                                                votes[1] += 0.103708886;
                                            }

                                            else {
                                                votes[1] += 0.31910676;
                                            }
                                        }

                                        else {
                                            if (x[18] <= 0.3571775) {
                                                votes[1] += -0.18750046;
                                            }

                                            else {
                                                votes[1] += 0.0033517978;
                                            }
                                        }
                                    }

                                    else {
                                        if (x[80] <= -1.311035) {
                                            if (x[14] <= 0.878113) {
                                                votes[1] += -0.15776543;
                                            }

                                            else {
                                                votes[1] += 0.2918344;
                                            }
                                        }

                                        else {
                                            if (x[80] <= 1.6677251) {
                                                votes[1] += -0.19422512;
                                            }

                                            else {
                                                votes[1] += -0.11956078;
                                            }
                                        }
                                    }
                                }

                                else {
                                    if (x[61] <= 0.3740235) {
                                        if (x[83] <= 82.59216) {
                                            if (x[68] <= -0.4975585) {
                                                votes[1] += -0.16790687;
                                            }

                                            else {
                                                votes[1] += 0.26590112;
                                            }
                                        }

                                        else {
                                            if (x[18] <= 0.524963) {
                                                votes[1] += 0.0017549236;
                                            }

                                            else {
                                                votes[1] += -0.17481087;
                                            }
                                        }
                                    }

                                    else {
                                        if (x[62] <= 0.7756955) {
                                            votes[1] += -0.21193586;
                                        }

                                        else {
                                            if (x[47] <= -62.25067) {
                                                votes[1] += 0.2700267;
                                            }

                                            else {
                                                votes[1] += -0.11386799;
                                            }
                                        }
                                    }
                                }
                            }

                            else {
                                if (x[76] <= 195.13611) {
                                    if (x[80] <= 1.4041135) {
                                        if (x[70] <= -165.81299) {
                                            if (x[18] <= 0.712708) {
                                                votes[1] += -0.111798055;
                                            }

                                            else {
                                                votes[1] += 0.30383828;
                                            }
                                        }

                                        else {
                                            if (x[58] <= 263.54706) {
                                                votes[1] += -0.16396876;
                                            }

                                            else {
                                                votes[1] += 0.22033523;
                                            }
                                        }
                                    }

                                    else {
                                        if (x[113] <= 48.1781) {
                                            if (x[107] <= -235.56213) {
                                                votes[1] += -0.20538677;
                                            }

                                            else {
                                                votes[1] += 0.2075058;
                                            }
                                        }

                                        else {
                                            if (x[81] <= 63.905334) {
                                                votes[1] += -0.21194595;
                                            }

                                            else {
                                                votes[1] += 0.11703644;
                                            }
                                        }
                                    }
                                }

                                else {
                                    if (x[17] <= -69.60327) {
                                        if (x[30] <= -0.13482651) {
                                            votes[1] += 0.05981824;
                                        }

                                        else {
                                            votes[1] += -0.19958673;
                                        }
                                    }

                                    else {
                                        if (x[115] <= 1.5309451) {
                                            if (x[20] <= -0.283508) {
                                                votes[1] += -0.17772286;
                                            }

                                            else {
                                                votes[1] += 0.2740314;
                                            }
                                        }

                                        else {
                                            if (x[98] <= -2.3057866) {
                                                votes[1] += 0.19416294;
                                            }

                                            else {
                                                votes[1] += -0.19561814;
                                            }
                                        }
                                    }
                                }
                            }
                        }

                        // tree #6
                        if (x[88] <= 789.5172) {
                            votes[2] += -0.20138423;
                        }

                        else {
                            votes[2] += 0.02037569;
                        }

                        // tree #7
                        if (x[76] <= -178.74084) {
                            if (x[77] <= -65.4538) {
                                if (x[32] <= -2.7819824) {
                                    votes[0] += -0.13038816;
                                }

                                else {
                                    if (x[55] <= 0.0438845) {
                                        if (x[14] <= 0.63250697) {
                                            votes[0] += 0.1984684;
                                        }

                                        else {
                                            votes[0] += -0.13569295;
                                        }
                                    }

                                    else {
                                        if (x[20] <= -3.0977175) {
                                            votes[0] += 0.06232958;
                                        }

                                        else {
                                            votes[0] += 0.25356644;
                                        }
                                    }
                                }
                            }

                            else {
                                if (x[107] <= -124.71802) {
                                    if (x[14] <= 1.4855955) {
                                        votes[0] += 0.24572994;
                                    }

                                    else {
                                        if (x[17] <= -124.04663) {
                                            votes[0] += 0.17874444;
                                        }

                                        else {
                                            votes[0] += -0.12304905;
                                        }
                                    }
                                }

                                else {
                                    if (x[82] <= -477.75543) {
                                        if (x[71] <= 83.58612) {
                                            votes[0] += 0.063180536;
                                        }

                                        else {
                                            votes[0] += 0.23515369;
                                        }
                                    }

                                    else {
                                        if (x[4] <= -110.99884) {
                                            if (x[44] <= 0.998047) {
                                                votes[0] += 0.27509236;
                                            }

                                            else {
                                                votes[0] += -0.07908357;
                                            }
                                        }

                                        else {
                                            if (x[2] <= -0.0131225) {
                                                votes[0] += 0.10116028;
                                            }

                                            else {
                                                votes[0] += -0.14944944;
                                            }
                                        }
                                    }
                                }
                            }
                        }

                        else {
                            if (x[64] <= 151.96167) {
                                if (x[68] <= 1.5272219) {
                                    if (x[68] <= -1.206177) {
                                        if (x[116] <= 0.913513) {
                                            votes[0] += 0.26477173;
                                        }

                                        else {
                                            if (x[43] <= 0.536682) {
                                                votes[0] += -0.18649684;
                                            }

                                            else {
                                                votes[0] += 0.05485127;
                                            }
                                        }
                                    }

                                    else {
                                        if (x[50] <= 2.5897217) {
                                            if (x[114] <= -1.8222046) {
                                                votes[0] += -0.0074888775;
                                            }

                                            else {
                                                votes[0] += 0.23708746;
                                            }
                                        }

                                        else {
                                            if (x[92] <= 0.9615475) {
                                                votes[0] += 0.2051891;
                                            }

                                            else {
                                                votes[0] += -0.10638371;
                                            }
                                        }
                                    }
                                }

                                else {
                                    if (x[92] <= 0.82257104) {
                                        if (x[16] <= -144.6994) {
                                            if (x[74] <= 2.041382) {
                                                votes[0] += 0.18840411;
                                            }

                                            else {
                                                votes[0] += -0.019119848;
                                            }
                                        }

                                        else {
                                            if (x[64] <= 133.29834) {
                                                votes[0] += 0.2403714;
                                            }

                                            else {
                                                votes[0] += -0.12622885;
                                            }
                                        }
                                    }

                                    else {
                                        if (x[56] <= 0.74450696) {
                                            if (x[70] <= 107.52716) {
                                                votes[0] += 0.23325278;
                                            }

                                            else {
                                                votes[0] += -0.07309361;
                                            }
                                        }

                                        else {
                                            if (x[101] <= 56.191406) {
                                                votes[0] += -0.06283638;
                                            }

                                            else {
                                                votes[0] += 0.23396325;
                                            }
                                        }
                                    }
                                }
                            }

                            else {
                                if (x[119] <= -49.017944) {
                                    if (x[116] <= -1.9385984) {
                                        if (x[11] <= -59.47937) {
                                            votes[0] += 0.14893103;
                                        }

                                        else {
                                            votes[0] += -0.15526234;
                                        }
                                    }

                                    else {
                                        if (x[74] <= -3.3583984) {
                                            votes[0] += -0.13498035;
                                        }

                                        else {
                                            if (x[68] <= 2.256958) {
                                                votes[0] += 0.24992491;
                                            }

                                            else {
                                                votes[0] += -0.0037578093;
                                            }
                                        }
                                    }
                                }

                                else {
                                    if (x[118] <= -113.298035) {
                                        if (x[119] <= 278.2669) {
                                            if (x[115] <= 1.347961) {
                                                votes[0] += -0.14367132;
                                            }

                                            else {
                                                votes[0] += 0.10369269;
                                            }
                                        }

                                        else {
                                            if (x[98] <= -1.6870115) {
                                                votes[0] += -0.098990485;
                                            }

                                            else {
                                                votes[0] += 0.26804423;
                                            }
                                        }
                                    }

                                    else {
                                        if (x[110] <= -0.70690954) {
                                            if (x[19] <= 0.8034665) {
                                                votes[0] += -0.18771096;
                                            }

                                            else {
                                                votes[0] += 0.17528728;
                                            }
                                        }

                                        else {
                                            if (x[98] <= 1.6947019) {
                                                votes[0] += 0.21591015;
                                            }

                                            else {
                                                votes[0] += -0.08023344;
                                            }
                                        }
                                    }
                                }
                            }
                        }

                        // tree #8
                        if (x[76] <= -178.74084) {
                            if (x[77] <= -65.4538) {
                                if (x[55] <= 0.0438845) {
                                    if (x[14] <= 0.09668) {
                                        votes[1] += -0.12600254;
                                    }

                                    else {
                                        votes[1] += 0.19382305;
                                    }
                                }

                                else {
                                    if (x[92] <= 3.116638) {
                                        votes[1] += -0.18916877;
                                    }

                                    else {
                                        if (x[42] <= 1.057251) {
                                            votes[1] += -0.0005526348;
                                        }

                                        else {
                                            votes[1] += 0.11237194;
                                        }
                                    }
                                }
                            }

                            else {
                                if (x[107] <= -144.95087) {
                                    if (x[76] <= -198.53394) {
                                        votes[1] += -0.1788162;
                                    }

                                    else {
                                        votes[1] += 0.016944496;
                                    }
                                }

                                else {
                                    if (x[82] <= -477.75543) {
                                        if (x[44] <= 0.34173548) {
                                            votes[1] += -0.16580784;
                                        }

                                        else {
                                            votes[1] += 0.021494884;
                                        }
                                    }

                                    else {
                                        if (x[25] <= 1.5385134) {
                                            if (x[4] <= -110.99884) {
                                                votes[1] += -0.03111993;
                                            }

                                            else {
                                                votes[1] += 0.2296344;
                                            }
                                        }

                                        else {
                                            votes[1] += -0.15961368;
                                        }
                                    }
                                }
                            }
                        }

                        else {
                            if (x[64] <= 151.36841) {
                                if (x[68] <= 1.5272219) {
                                    if (x[68] <= -0.7770995) {
                                        if (x[116] <= 0.913513) {
                                            if (x[14] <= 2.3311155) {
                                                votes[1] += -0.18849243;
                                            }

                                            else {
                                                votes[1] += 0.042382345;
                                            }
                                        }

                                        else {
                                            if (x[43] <= 0.536682) {
                                                votes[1] += 0.2660627;
                                            }

                                            else {
                                                votes[1] += -0.016504277;
                                            }
                                        }
                                    }

                                    else {
                                        if (x[50] <= 2.5897217) {
                                            if (x[62] <= -0.218811) {
                                                votes[1] += -0.08364697;
                                            }

                                            else {
                                                votes[1] += -0.17413989;
                                            }
                                        }

                                        else {
                                            if (x[92] <= 0.9615475) {
                                                votes[1] += -0.11764073;
                                            }

                                            else {
                                                votes[1] += 0.2406888;
                                            }
                                        }
                                    }
                                }

                                else {
                                    if (x[92] <= 0.82257104) {
                                        if (x[92] <= 0.119873) {
                                            if (x[64] <= 118.78937) {
                                                votes[1] += -0.1848863;
                                            }

                                            else {
                                                votes[1] += 0.0039857356;
                                            }
                                        }

                                        else {
                                            if (x[97] <= 0.212036) {
                                                votes[1] += 0.04874246;
                                            }

                                            else {
                                                votes[1] += -0.11521725;
                                            }
                                        }
                                    }

                                    else {
                                        if (x[56] <= 0.74450696) {
                                            if (x[70] <= 71.41235) {
                                                votes[1] += -0.15847817;
                                            }

                                            else {
                                                votes[1] += 0.08325758;
                                            }
                                        }

                                        else {
                                            if (x[101] <= 56.191406) {
                                                votes[1] += 0.17865977;
                                            }

                                            else {
                                                votes[1] += -0.12316524;
                                            }
                                        }
                                    }
                                }
                            }

                            else {
                                if (x[65] <= 83.35266) {
                                    if (x[59] <= -235.56213) {
                                        if (x[79] <= 0.534851) {
                                            if (x[66] <= 0.819031) {
                                                votes[1] += 0.0039550355;
                                            }

                                            else {
                                                votes[1] += -0.20324668;
                                            }
                                        }

                                        else {
                                            if (x[35] <= -7.5567627) {
                                                votes[1] += 0.15414074;
                                            }

                                            else {
                                                votes[1] += -0.10856206;
                                            }
                                        }
                                    }

                                    else {
                                        if (x[5] <= -93.591) {
                                            if (x[118] <= -268.75793) {
                                                votes[1] += 0.112753175;
                                            }

                                            else {
                                                votes[1] += -0.16010326;
                                            }
                                        }

                                        else {
                                            if (x[8] <= -0.1782835) {
                                                votes[1] += -0.10236325;
                                            }

                                            else {
                                                votes[1] += 0.20139994;
                                            }
                                        }
                                    }
                                }

                                else {
                                    if (x[114] <= -0.4177855) {
                                        if (x[11] <= -36.019897) {
                                            votes[1] += -0.1231685;
                                        }

                                        else {
                                            if (x[5] <= 1.5777586) {
                                                votes[1] += 0.08096158;
                                            }

                                            else {
                                                votes[1] += 0.29951596;
                                            }
                                        }
                                    }

                                    else {
                                        if (x[104] <= -2.0690305) {
                                            votes[1] += -0.0020628443;
                                        }

                                        else {
                                            votes[1] += -0.19028603;
                                        }
                                    }
                                }
                            }
                        }

                        // tree #9
                        if (x[35] <= 1173.7872) {
                            votes[2] += -0.18667628;
                        }

                        else {
                            votes[2] += 0.03601596;
                        }

                        // tree #10
                        if (x[70] <= -164.36096) {
                            if (x[71] <= -56.47888) {
                                if (x[26] <= -1.6254885) {
                                    if (x[0] <= 1.601868) {
                                        votes[0] += -0.15187281;
                                    }

                                    else {
                                        votes[0] += 0.1468817;
                                    }
                                }

                                else {
                                    if (x[66] <= -0.47827148) {
                                        votes[0] += -0.088963054;
                                    }

                                    else {
                                        if (x[62] <= 2.0587158) {
                                            if (x[61] <= -0.267151) {
                                                votes[0] += 0.08321495;
                                            }

                                            else {
                                                votes[0] += 0.23022194;
                                            }
                                        }

                                        else {
                                            votes[0] += -0.010676408;
                                        }
                                    }
                                }
                            }

                            else {
                                if (x[67] <= 1.3077395) {
                                    if (x[4] <= -66.95831) {
                                        if (x[56] <= -1.9450076) {
                                            votes[0] += -0.006232331;
                                        }

                                        else {
                                            if (x[29] <= 4.812622) {
                                                votes[0] += 0.24525927;
                                            }

                                            else {
                                                votes[0] += 0.06042641;
                                            }
                                        }
                                    }

                                    else {
                                        if (x[119] <= -186.52496) {
                                            if (x[57] <= 88.50189) {
                                                votes[0] += 0.21604465;
                                            }

                                            else {
                                                votes[0] += -0.020050427;
                                            }
                                        }

                                        else {
                                            if (x[25] <= 1.0654294) {
                                                votes[0] += -0.14308962;
                                            }

                                            else {
                                                votes[0] += 0.092251755;
                                            }
                                        }
                                    }
                                }

                                else {
                                    if (x[32] <= 0.4986575) {
                                        if (x[62] <= 2.147583) {
                                            if (x[78] <= -0.451721) {
                                                votes[0] += 0.04962419;
                                            }

                                            else {
                                                votes[0] += 0.24963173;
                                            }
                                        }

                                        else {
                                            if (x[48] <= 2.0901484) {
                                                votes[0] += -0.13083646;
                                            }

                                            else {
                                                votes[0] += 0.22304033;
                                            }
                                        }
                                    }

                                    else {
                                        if (x[117] <= -49.697876) {
                                            votes[0] += 0.2083229;
                                        }

                                        else {
                                            if (x[103] <= -0.1055905) {
                                                votes[0] += 0.14605951;
                                            }

                                            else {
                                                votes[0] += -0.17555964;
                                            }
                                        }
                                    }
                                }
                            }
                        }

                        else {
                            if (x[118] <= -165.11566) {
                                if (x[119] <= -72.6236) {
                                    if (x[8] <= 2.6591794) {
                                        if (x[70] <= -116.02112) {
                                            votes[0] += -0.024401804;
                                        }

                                        else {
                                            if (x[114] <= -0.520508) {
                                                votes[0] += 0.01606513;
                                            }

                                            else {
                                                votes[0] += 0.21873009;
                                            }
                                        }
                                    }

                                    else {
                                        if (x[5] <= -50.75714) {
                                            votes[0] += 0.0719827;
                                        }

                                        else {
                                            votes[0] += -0.096923664;
                                        }
                                    }
                                }

                                else {
                                    if (x[38] <= 0.3759155) {
                                        if (x[20] <= 2.8343506) {
                                            if (x[2] <= 2.76416) {
                                                votes[0] += 0.21929719;
                                            }

                                            else {
                                                votes[0] += -0.108353935;
                                            }
                                        }

                                        else {
                                            votes[0] += -0.21091118;
                                        }
                                    }

                                    else {
                                        if (x[77] <= -266.85547) {
                                            if (x[63] <= 42.604065) {
                                                votes[0] += 0.23990197;
                                            }

                                            else {
                                                votes[0] += -0.038322106;
                                            }
                                        }

                                        else {
                                            if (x[102] <= 0.1403805) {
                                                votes[0] += 0.059134725;
                                            }

                                            else {
                                                votes[0] += -0.12683494;
                                            }
                                        }
                                    }
                                }
                            }

                            else {
                                if (x[88] <= 205.89569) {
                                    if (x[68] <= -1.8504031) {
                                        if (x[34] <= 177.41211) {
                                            votes[0] += 0.21738127;
                                        }

                                        else {
                                            if (x[95] <= -26.877747) {
                                                votes[0] += 0.073936224;
                                            }

                                            else {
                                                votes[0] += -0.1674124;
                                            }
                                        }
                                    }

                                    else {
                                        if (x[40] <= -255.90546) {
                                            if (x[106] <= 66.26831) {
                                                votes[0] += 0.20546813;
                                            }

                                            else {
                                                votes[0] += 0.0364159;
                                            }
                                        }

                                        else {
                                            if (x[90] <= -1.7914425) {
                                                votes[0] += -0.09213503;
                                            }

                                            else {
                                                votes[0] += 0.20514219;
                                            }
                                        }
                                    }
                                }

                                else {
                                    if (x[62] <= 2.1087644) {
                                        if (x[108] <= -0.1083375) {
                                            if (x[30] <= 0.512085) {
                                                votes[0] += -0.19213118;
                                            }

                                            else {
                                                votes[0] += 0.12249259;
                                            }
                                        }

                                        else {
                                            if (x[32] <= 1.958252) {
                                                votes[0] += 0.17190088;
                                            }

                                            else {
                                                votes[0] += -0.10728515;
                                            }
                                        }
                                    }

                                    else {
                                        if (x[26] <= 0.32202148) {
                                            if (x[21] <= 2.344055) {
                                                votes[0] += -0.0389863;
                                            }

                                            else {
                                                votes[0] += 0.27429602;
                                            }
                                        }

                                        else {
                                            if (x[117] <= 106.44348) {
                                                votes[0] += -0.16809812;
                                            }

                                            else {
                                                votes[0] += 0.11686288;
                                            }
                                        }
                                    }
                                }
                            }
                        }

                        // tree #11
                        if (x[74] <= 1.0513306) {
                            if (x[100] <= -180.55878) {
                                if (x[101] <= -68.91907) {
                                    if (x[79] <= 0.0438845) {
                                        if (x[23] <= 12.389526) {
                                            votes[1] += 0.18638133;
                                        }

                                        else {
                                            votes[1] += -0.088940054;
                                        }
                                    }

                                    else {
                                        if (x[44] <= -2.727966) {
                                            votes[1] += -0.011636639;
                                        }

                                        else {
                                            votes[1] += -0.18079546;
                                        }
                                    }
                                }

                                else {
                                    if (x[106] <= -477.75543) {
                                        if (x[92] <= -2.4423215) {
                                            votes[1] += 0.050380144;
                                        }

                                        else {
                                            votes[1] += -0.18767329;
                                        }
                                    }

                                    else {
                                        if (x[8] <= 0.2487795) {
                                            if (x[86] <= -2.8504028) {
                                                votes[1] += 0.12843554;
                                            }

                                            else {
                                                votes[1] += -0.13638076;
                                            }
                                        }

                                        else {
                                            if (x[89] <= 296.82556) {
                                                votes[1] += 0.19291197;
                                            }

                                            else {
                                                votes[1] += -0.11031722;
                                            }
                                        }
                                    }
                                }
                            }

                            else {
                                if (x[98] <= -1.4291995) {
                                    if (x[38] <= 1.514221) {
                                        if (x[115] <= -0.044067502) {
                                            if (x[28] <= -7.9504395) {
                                                votes[1] += 0.14972256;
                                            }

                                            else {
                                                votes[1] += -0.09400381;
                                            }
                                        }

                                        else {
                                            votes[1] += -0.17704193;
                                        }
                                    }

                                    else {
                                        if (x[57] <= -195.89417) {
                                            votes[1] += -0.023571612;
                                        }

                                        else {
                                            votes[1] += 0.22031201;
                                        }
                                    }
                                }

                                else {
                                    if (x[108] <= -1.069397) {
                                        if (x[100] <= 49.00879) {
                                            if (x[84] <= 1.322754) {
                                                votes[1] += -0.16129424;
                                            }

                                            else {
                                                votes[1] += -0.008433628;
                                            }
                                        }

                                        else {
                                            if (x[93] <= 100.07385) {
                                                votes[1] += 0.24578992;
                                            }

                                            else {
                                                votes[1] += -0.092291005;
                                            }
                                        }
                                    }

                                    else {
                                        if (x[116] <= -1.88678) {
                                            if (x[74] <= 0.641052) {
                                                votes[1] += -0.1521076;
                                            }

                                            else {
                                                votes[1] += 0.19479923;
                                            }
                                        }

                                        else {
                                            if (x[58] <= -236.44379) {
                                                votes[1] += -0.018133622;
                                            }

                                            else {
                                                votes[1] += -0.1547606;
                                            }
                                        }
                                    }
                                }
                            }
                        }

                        else {
                            if (x[82] <= -133.77869) {
                                if (x[92] <= 1.0935055) {
                                    if (x[100] <= -263.15552) {
                                        if (x[10] <= 33.13965) {
                                            votes[1] += -0.023347842;
                                        }

                                        else {
                                            votes[1] += 0.19505762;
                                        }
                                    }

                                    else {
                                        if (x[30] <= 1.1970825) {
                                            if (x[104] <= 0.037720002) {
                                                votes[1] += 0.0021291473;
                                            }

                                            else {
                                                votes[1] += -0.21675903;
                                            }
                                        }

                                        else {
                                            if (x[3] <= -37.910767) {
                                                votes[1] += 0.14129058;
                                            }

                                            else {
                                                votes[1] += 0.020752938;
                                            }
                                        }
                                    }
                                }

                                else {
                                    if (x[71] <= -72.13501) {
                                        if (x[26] <= -2.86908) {
                                            votes[1] += 0.1575523;
                                        }

                                        else {
                                            votes[1] += -0.1596469;
                                        }
                                    }

                                    else {
                                        if (x[65] <= 312.4115) {
                                            if (x[18] <= 2.2911375) {
                                                votes[1] += 0.21803296;
                                            }

                                            else {
                                                votes[1] += -0.0482706;
                                            }
                                        }

                                        else {
                                            votes[1] += -0.14974965;
                                        }
                                    }
                                }
                            }

                            else {
                                if (x[56] <= 1.1097414) {
                                    if (x[70] <= 66.45264) {
                                        if (x[14] <= -1.743652) {
                                            if (x[36] <= 1.4921265) {
                                                votes[1] += 0.20629787;
                                            }

                                            else {
                                                votes[1] += -0.15876652;
                                            }
                                        }

                                        else {
                                            if (x[77] <= -92.49237) {
                                                votes[1] += -0.09302983;
                                            }

                                            else {
                                                votes[1] += -0.16823654;
                                            }
                                        }
                                    }

                                    else {
                                        if (x[88] <= 82.47223) {
                                            if (x[54] <= -0.8374635) {
                                                votes[1] += 0.031138806;
                                            }

                                            else {
                                                votes[1] += -0.15967354;
                                            }
                                        }

                                        else {
                                            if (x[21] <= -7.36908) {
                                                votes[1] += -0.1021848;
                                            }

                                            else {
                                                votes[1] += 0.23562819;
                                            }
                                        }
                                    }
                                }

                                else {
                                    if (x[70] <= 148.43811) {
                                        if (x[86] <= 1.4591675) {
                                            if (x[106] <= 19.001465) {
                                                votes[1] += -0.17049521;
                                            }

                                            else {
                                                votes[1] += 0.008313403;
                                            }
                                        }

                                        else {
                                            if (x[107] <= -218.04016) {
                                                votes[1] += -0.19050065;
                                            }

                                            else {
                                                votes[1] += 0.16299367;
                                            }
                                        }
                                    }

                                    else {
                                        if (x[78] <= 2.2911375) {
                                            if (x[83] <= 103.06702) {
                                                votes[1] += 0.22132698;
                                            }

                                            else {
                                                votes[1] += -0.13268629;
                                            }
                                        }

                                        else {
                                            votes[1] += -0.18281056;
                                        }
                                    }
                                }
                            }
                        }

                        // tree #12
                        if (x[95] <= 1192.8302) {
                            votes[2] += -0.17674795;
                        }

                        else {
                            votes[2] += 0.04082388;
                        }

                        // tree #13
                        if (x[68] <= 1.109924) {
                            if (x[100] <= -193.9386) {
                                if (x[107] <= -52.10266) {
                                    if (x[2] <= 1.9906615) {
                                        if (x[92] <= 1.173218) {
                                            if (x[91] <= -0.083191) {
                                                votes[0] += 0.06658928;
                                            }

                                            else {
                                                votes[0] += 0.20273332;
                                            }
                                        }

                                        else {
                                            votes[0] += 0.023187459;
                                        }
                                    }

                                    else {
                                        if (x[89] <= -25.15686) {
                                            votes[0] += 0.18332021;
                                        }

                                        else {
                                            if (x[90] <= 1.3857425) {
                                                votes[0] += -0.1451292;
                                            }

                                            else {
                                                votes[0] += -0.023190543;
                                            }
                                        }
                                    }
                                }

                                else {
                                    if (x[49] <= 0.8095705) {
                                        if (x[17] <= 74.00818) {
                                            if (x[57] <= -113.77533) {
                                                votes[0] += 0.09754572;
                                            }

                                            else {
                                                votes[0] += -0.14519155;
                                            }
                                        }

                                        else {
                                            if (x[69] <= 19.01062) {
                                                votes[0] += 0.26971546;
                                            }

                                            else {
                                                votes[0] += -0.074071586;
                                            }
                                        }
                                    }

                                    else {
                                        if (x[80] <= -2.2071533) {
                                            if (x[42] <= 1.654053) {
                                                votes[0] += -0.13199699;
                                            }

                                            else {
                                                votes[0] += 0.029402304;
                                            }
                                        }

                                        else {
                                            if (x[86] <= 0.808716) {
                                                votes[0] += 0.2123839;
                                            }

                                            else {
                                                votes[0] += -0.10022298;
                                            }
                                        }
                                    }
                                }
                            }

                            else {
                                if (x[98] <= -1.500549) {
                                    if (x[38] <= 1.7615964) {
                                        if (x[109] <= -0.1383055) {
                                            votes[0] += -0.033056393;
                                        }

                                        else {
                                            votes[0] += 0.19166133;
                                        }
                                    }

                                    else {
                                        if (x[91] <= 0.485535) {
                                            votes[0] += -0.16887139;
                                        }

                                        else {
                                            if (x[37] <= 1.5944215) {
                                                votes[0] += 0.13950373;
                                            }

                                            else {
                                                votes[0] += -0.03783463;
                                            }
                                        }
                                    }
                                }

                                else {
                                    if (x[102] <= -0.82501197) {
                                        if (x[82] <= 114.97009) {
                                            if (x[46] <= 176.1319) {
                                                votes[0] += 0.16149364;
                                            }

                                            else {
                                                votes[0] += -0.12094117;
                                            }
                                        }

                                        else {
                                            if (x[61] <= 0.39544702) {
                                                votes[0] += -0.18366802;
                                            }

                                            else {
                                                votes[0] += 0.06987669;
                                            }
                                        }
                                    }

                                    else {
                                        if (x[32] <= -2.256836) {
                                            if (x[4] <= 239.24957) {
                                                votes[0] += 0.18037899;
                                            }

                                            else {
                                                votes[0] += -0.15376103;
                                            }
                                        }

                                        else {
                                            if (x[50] <= 3.5338135) {
                                                votes[0] += 0.18262534;
                                            }

